<?xml version="1.0"?>
<opencv_storage>
<cascade>
  <stageType>BOOST</stageType>
  <featureType>HAAR</featureType>
  <height>64</height>
  <width>64</width>
  <stageParams>
    <boostType>GAB</boostType>
    <minHitRate>9.9500000476837158e-01</minHitRate>
    <maxFalseAlarm>5.0000000000000000e-01</maxFalseAlarm>
    <weightTrimRate>9.4999998807907104e-01</weightTrimRate>
    <maxDepth>1</maxDepth>
    <maxWeakCount>100</maxWeakCount></stageParams>
  <featureParams>
    <maxCatCount>0</maxCatCount>
    <featSize>1</featSize>
    <mode>BASIC</mode></featureParams>
  <stageNum>15</stageNum>
  <stages>
    <!-- stage 0 -->
    <_>
      <maxWeakCount>2</maxWeakCount>
      <stageThreshold>-6.5709501504898071e-02</stageThreshold>
      <weakClassifiers>
        <_>
          <internalNodes>
            0 -1 22 -5.3439497947692871e-02</internalNodes>
          <leafValues>
            1. -9.4219654798507690e-01</leafValues></_>
        <_>
          <internalNodes>
            0 -1 24 6.5485443919897079e-03</internalNodes>
          <leafValues>
            -9.7653430700302124e-01 8.7648701667785645e-01</leafValues></_></weakClassifiers></_>
    <!-- stage 1 -->
    <_>
      <maxWeakCount>2</maxWeakCount>
      <stageThreshold>-3.2785333693027496e-02</stageThreshold>
      <weakClassifiers>
        <_>
          <internalNodes>
            0 -1 1 6.9034084677696228e-02</internalNodes>
          <leafValues>
            -8.2122904062271118e-01 9.0566039085388184e-01</leafValues></_>
        <_>
          <internalNodes>
            0 -1 37 -5.4547390900552273e-03</internalNodes>
          <leafValues>
            7.8844374418258667e-01 -9.2753273248672485e-01</leafValues></_></weakClassifiers></_>
    <!-- stage 2 -->
    <_>
      <maxWeakCount>3</maxWeakCount>
      <stageThreshold>-9.8264992237091064e-01</stageThreshold>
      <weakClassifiers>
        <_>
          <internalNodes>
            0 -1 21 9.6717942506074905e-04</internalNodes>
          <leafValues>
            -8.3333331346511841e-01 6.1240309476852417e-01</leafValues></_>
        <_>
          <internalNodes>
            0 -1 7 1.9463373348116875e-02</internalNodes>
          <leafValues>
            -7.9544889926910400e-01 7.2616928815841675e-01</leafValues></_>
        <_>
          <internalNodes>
            0 -1 43 -1.9827224314212799e-03</internalNodes>
          <leafValues>
            6.5435034036636353e-01 -8.7548589706420898e-01</leafValues></_></weakClassifiers></_>
    <!-- stage 3 -->
    <_>
      <maxWeakCount>4</maxWeakCount>
      <stageThreshold>-3.3234447240829468e-01</stageThreshold>
      <weakClassifiers>
        <_>
          <internalNodes>
            0 -1 0 8.1848368048667908e-02</internalNodes>
          <leafValues>
            -7.1428573131561279e-01 7.6699030399322510e-01</leafValues></_>
        <_>
          <internalNodes>
            0 -1 26 -2.8876457363367081e-03</internalNodes>
          <leafValues>
            5.9543585777282715e-01 -7.8568232059478760e-01</leafValues></_>
        <_>
          <internalNodes>
            0 -1 10 8.2825884222984314e-02</internalNodes>
          <leafValues>
            -8.2893580198287964e-01 5.6239032745361328e-01</leafValues></_>
        <_>
          <internalNodes>
            0 -1 2 -8.4041599184274673e-03</internalNodes>
          <leafValues>
            6.9796764850616455e-01 -7.7588492631912231e-01</leafValues></_></weakClassifiers></_>
    <!-- stage 4 -->
    <_>
      <maxWeakCount>2</maxWeakCount>
      <stageThreshold>-2.2388191521167755e-01</stageThreshold>
      <weakClassifiers>
        <_>
          <internalNodes>
            0 -1 3 4.0691711008548737e-02</internalNodes>
          <leafValues>
            -7.7142858505249023e-01 7.6363635063171387e-01</leafValues></_>
        <_>
          <internalNodes>
            0 -1 36 -2.4262091610580683e-03</internalNodes>
          <leafValues>
            5.4754668474197388e-01 -8.9399296045303345e-01</leafValues></_></weakClassifiers></_>
    <!-- stage 5 -->
    <_>
      <maxWeakCount>3</maxWeakCount>
      <stageThreshold>-7.4013853073120117e-01</stageThreshold>
      <weakClassifiers>
        <_>
          <internalNodes>
            0 -1 42 2.2782096639275551e-03</internalNodes>
          <leafValues>
            -9.0140843391418457e-01 5.3846156597137451e-01</leafValues></_>
        <_>
          <internalNodes>
            0 -1 45 -2.3221090435981750e-02</internalNodes>
          <leafValues>
            8.9466810226440430e-01 -6.4888960123062134e-01</leafValues></_>
        <_>
          <internalNodes>
            0 -1 35 -2.7402206324040890e-03</internalNodes>
          <leafValues>
            8.2891917228698730e-01 -6.2971049547195435e-01</leafValues></_></weakClassifiers></_>
    <!-- stage 6 -->
    <_>
      <maxWeakCount>2</maxWeakCount>
      <stageThreshold>-3.5112056136131287e-01</stageThreshold>
      <weakClassifiers>
        <_>
          <internalNodes>
            0 -1 13 1.4831199077889323e-03</internalNodes>
          <leafValues>
            -8.3006536960601807e-01 5.7575756311416626e-01</leafValues></_>
        <_>
          <internalNodes>
            0 -1 20 7.6494421809911728e-03</internalNodes>
          <leafValues>
            -9.2687815427780151e-01 5.8938372135162354e-01</leafValues></_></weakClassifiers></_>
    <!-- stage 7 -->
    <_>
      <maxWeakCount>4</maxWeakCount>
      <stageThreshold>-3.1154742836952209e-01</stageThreshold>
      <weakClassifiers>
        <_>
          <internalNodes>
            0 -1 8 1.1945706792175770e-03</internalNodes>
          <leafValues>
            -8.7412589788436890e-01 5.2112674713134766e-01</leafValues></_>
        <_>
          <internalNodes>
            0 -1 38 -3.3296616747975349e-03</internalNodes>
          <leafValues>
            4.0743836760520935e-01 -9.6984189748764038e-01</leafValues></_>
        <_>
          <internalNodes>
            0 -1 32 -1.3538729399442673e-03</internalNodes>
          <leafValues>
            6.9445186853408813e-01 -6.2495207786560059e-01</leafValues></_>
        <_>
          <internalNodes>
            0 -1 16 1.7105817794799805e-02</internalNodes>
          <leafValues>
            -5.3931182622909546e-01 8.3277469873428345e-01</leafValues></_></weakClassifiers></_>
    <!-- stage 8 -->
    <_>
      <maxWeakCount>3</maxWeakCount>
      <stageThreshold>1.3261069357395172e-01</stageThreshold>
      <weakClassifiers>
        <_>
          <internalNodes>
            0 -1 9 7.5398413464426994e-03</internalNodes>
          <leafValues>
            -7.1264368295669556e-01 6.5765768289566040e-01</leafValues></_>
        <_>
          <internalNodes>
            0 -1 41 1.7768468242138624e-03</internalNodes>
          <leafValues>
            -9.5604449510574341e-01 4.1054186224937439e-01</leafValues></_>
        <_>
          <internalNodes>
            0 -1 44 8.4242888260632753e-04</internalNodes>
          <leafValues>
            4.3471249938011169e-01 -8.8556164503097534e-01</leafValues></_></weakClassifiers></_>
    <!-- stage 9 -->
    <_>
      <maxWeakCount>5</maxWeakCount>
      <stageThreshold>-1.8286284208297729e+00</stageThreshold>
      <weakClassifiers>
        <_>
          <internalNodes>
            0 -1 23 2.0037401467561722e-02</internalNodes>
          <leafValues>
            -5.9798997640609741e-01 7.9069769382476807e-01</leafValues></_>
        <_>
          <internalNodes>
            0 -1 19 5.1335979253053665e-02</internalNodes>
          <leafValues>
            -7.2290980815887451e-01 6.1319720745086670e-01</leafValues></_>
        <_>
          <internalNodes>
            0 -1 28 -5.1684225909411907e-03</internalNodes>
          <leafValues>
            6.3463610410690308e-01 -7.3736357688903809e-01</leafValues></_>
        <_>
          <internalNodes>
            0 -1 4 3.8624969311058521e-03</internalNodes>
          <leafValues>
            -6.4342218637466431e-01 6.8631219863891602e-01</leafValues></_>
        <_>
          <internalNodes>
            0 -1 46 -3.3486232161521912e-02</internalNodes>
          <leafValues>
            8.1207817792892456e-01 -4.9894261360168457e-01</leafValues></_></weakClassifiers></_>
    <!-- stage 10 -->
    <_>
      <maxWeakCount>2</maxWeakCount>
      <stageThreshold>-2.1250797808170319e-01</stageThreshold>
      <weakClassifiers>
        <_>
          <internalNodes>
            0 -1 40 1.1705819051712751e-03</internalNodes>
          <leafValues>
            -8.2278478145599365e-01 6.2204724550247192e-01</leafValues></_>
        <_>
          <internalNodes>
            0 -1 6 3.2226359471678734e-03</internalNodes>
          <leafValues>
            -8.3455520868301392e-01 6.1834347248077393e-01</leafValues></_></weakClassifiers></_>
    <!-- stage 11 -->
    <_>
      <maxWeakCount>4</maxWeakCount>
      <stageThreshold>-3.2097363471984863e-01</stageThreshold>
      <weakClassifiers>
        <_>
          <internalNodes>
            0 -1 5 6.7691460251808167e-02</internalNodes>
          <leafValues>
            -7.1122992038726807e-01 8.3673471212387085e-01</leafValues></_>
        <_>
          <internalNodes>
            0 -1 29 3.0428866739384830e-04</internalNodes>
          <leafValues>
            -7.7829593420028687e-01 6.4480757713317871e-01</leafValues></_>
        <_>
          <internalNodes>
            0 -1 27 -7.5860433280467987e-03</internalNodes>
          <leafValues>
            -9.0316277742385864e-01 5.1145863533020020e-01</leafValues></_>
        <_>
          <internalNodes>
            0 -1 18 2.6084899902343750e-02</internalNodes>
          <leafValues>
            -7.5436764955520630e-01 6.5709364414215088e-01</leafValues></_></weakClassifiers></_>
    <!-- stage 12 -->
    <_>
      <maxWeakCount>3</maxWeakCount>
      <stageThreshold>-7.4886351823806763e-01</stageThreshold>
      <weakClassifiers>
        <_>
          <internalNodes>
            0 -1 25 2.8666611760854721e-03</internalNodes>
          <leafValues>
            -7.1134018898010254e-01 9.5604395866394043e-01</leafValues></_>
        <_>
          <internalNodes>
            0 -1 34 2.1154803689569235e-03</internalNodes>
          <leafValues>
            -7.7933472394943237e-01 8.3406263589859009e-01</leafValues></_>
        <_>
          <internalNodes>
            0 -1 14 -1.4803165104240179e-03</internalNodes>
          <leafValues>
            -8.5467481613159180e-01 7.4181145429611206e-01</leafValues></_></weakClassifiers></_>
    <!-- stage 13 -->
    <_>
      <maxWeakCount>3</maxWeakCount>
      <stageThreshold>-9.6790188550949097e-01</stageThreshold>
      <weakClassifiers>
        <_>
          <internalNodes>
            0 -1 17 3.6571340751834214e-04</internalNodes>
          <leafValues>
            -8.1366461515426636e-01 6.4516127109527588e-01</leafValues></_>
        <_>
          <internalNodes>
            0 -1 15 4.3699271045625210e-03</internalNodes>
          <leafValues>
            -7.9606592655181885e-01 6.5456616878509521e-01</leafValues></_>
        <_>
          <internalNodes>
            0 -1 31 3.2243703026324511e-03</internalNodes>
          <leafValues>
            -7.7957719564437866e-01 6.4182865619659424e-01</leafValues></_></weakClassifiers></_>
    <!-- stage 14 -->
    <_>
      <maxWeakCount>5</maxWeakCount>
      <stageThreshold>-5.7170510292053223e-01</stageThreshold>
      <weakClassifiers>
        <_>
          <internalNodes>
            0 -1 33 2.8657279908657074e-03</internalNodes>
          <leafValues>
            -6.7231637239456177e-01 6.2962961196899414e-01</leafValues></_>
        <_>
          <internalNodes>
            0 -1 39 -4.9760360270738602e-03</internalNodes>
          <leafValues>
            7.5731986761093140e-01 -5.3807741403579712e-01</leafValues></_>
        <_>
          <internalNodes>
            0 -1 30 4.8472313210368156e-04</internalNodes>
          <leafValues>
            -5.6089472770690918e-01 7.3708069324493408e-01</leafValues></_>
        <_>
          <internalNodes>
            0 -1 11 4.9366466701030731e-03</internalNodes>
          <leafValues>
            -5.9157705307006836e-01 7.5324422121047974e-01</leafValues></_>
        <_>
          <internalNodes>
            0 -1 12 1.0070793796330690e-03</internalNodes>
          <leafValues>
            -8.0221223831176758e-01 5.5134636163711548e-01</leafValues></_></weakClassifiers></_></stages>
  <features>
    <_>
      <rects>
        <_>
          0 8 60 8 -1.</_>
        <_>
          20 8 20 8 3.</_></rects>
      <tilted>0</tilted></_>
    <_>
      <rects>
        <_>
          1 12 63 8 -1.</_>
        <_>
          22 12 21 8 3.</_></rects>
      <tilted>0</tilted></_>
    <_>
      <rects>
        <_>
          2 11 24 14 -1.</_>
        <_>
          2 11 12 7 2.</_>
        <_>
          14 18 12 7 2.</_></rects>
      <tilted>0</tilted></_>
    <_>
      <rects>
        <_>
          3 4 16 46 -1.</_>
        <_>
          11 4 8 46 2.</_></rects>
      <tilted>0</tilted></_>
    <_>
      <rects>
        <_>
          3 20 12 9 -1.</_>
        <_>
          9 20 6 9 2.</_></rects>
      <tilted>0</tilted></_>
    <_>
      <rects>
        <_>
          4 6 32 20 -1.</_>
        <_>
          20 6 16 20 2.</_></rects>
      <tilted>0</tilted></_>
    <_>
      <rects>
        <_>
          4 24 18 8 -1.</_>
        <_>
          4 24 9 4 2.</_>
        <_>
          13 28 9 4 2.</_></rects>
      <tilted>0</tilted></_>
    <_>
      <rects>
        <_>
          4 55 57 4 -1.</_>
        <_>
          23 55 19 4 3.</_></rects>
      <tilted>0</tilted></_>
    <_>
      <rects>
        <_>
          5 0 47 4 -1.</_>
        <_>
          5 2 47 2 2.</_></rects>
      <tilted>0</tilted></_>
    <_>
      <rects>
        <_>
          5 6 57 1 -1.</_>
        <_>
          24 6 19 1 3.</_></rects>
      <tilted>0</tilted></_>
    <_>
      <rects>
        <_>
          5 20 53 30 -1.</_>
        <_>
          5 30 53 10 3.</_></rects>
      <tilted>0</tilted></_>
    <_>
      <rects>
        <_>
          6 23 8 13 -1.</_>
        <_>
          10 23 4 13 2.</_></rects>
      <tilted>0</tilted></_>
    <_>
      <rects>
        <_>
          6 24 27 4 -1.</_>
        <_>
          6 26 27 2 2.</_></rects>
      <tilted>0</tilted></_>
    <_>
      <rects>
        <_>
          7 35 16 2 -1.</_>
        <_>
          15 35 8 2 2.</_></rects>
      <tilted>0</tilted></_>
    <_>
      <rects>
        <_>
          8 13 4 18 -1.</_>
        <_>
          8 22 4 9 2.</_></rects>
      <tilted>0</tilted></_>
    <_>
      <rects>
        <_>
          8 29 18 10 -1.</_>
        <_>
          14 29 6 10 3.</_></rects>
      <tilted>0</tilted></_>
    <_>
      <rects>
        <_>
          8 31 26 32 -1.</_>
        <_>
          8 31 13 16 2.</_>
        <_>
          21 47 13 16 2.</_></rects>
      <tilted>0</tilted></_>
    <_>
      <rects>
        <_>
          9 3 46 2 -1.</_>
        <_>
          9 4 46 1 2.</_></rects>
      <tilted>0</tilted></_>
    <_>
      <rects>
        <_>
          9 54 42 7 -1.</_>
        <_>
          23 54 14 7 3.</_></rects>
      <tilted>0</tilted></_>
    <_>
      <rects>
        <_>
          11 0 33 27 -1.</_>
        <_>
          11 9 33 9 3.</_></rects>
      <tilted>0</tilted></_>
    <_>
      <rects>
        <_>
          11 24 34 6 -1.</_>
        <_>
          11 27 34 3 2.</_></rects>
      <tilted>0</tilted></_>
    <_>
      <rects>
        <_>
          12 1 29 4 -1.</_>
        <_>
          12 3 29 2 2.</_></rects>
      <tilted>0</tilted></_>
    <_>
      <rects>
        <_>
          13 11 37 24 -1.</_>
        <_>
          13 19 37 8 3.</_></rects>
      <tilted>0</tilted></_>
    <_>
      <rects>
        <_>
          14 55 39 4 -1.</_>
        <_>
          27 55 13 4 3.</_></rects>
      <tilted>0</tilted></_>
    <_>
      <rects>
        <_>
          15 23 9 14 -1.</_>
        <_>
          15 30 9 7 2.</_></rects>
      <tilted>0</tilted></_>
    <_>
      <rects>
        <_>
          16 49 16 10 -1.</_>
        <_>
          16 49 8 5 2.</_>
        <_>
          24 54 8 5 2.</_></rects>
      <tilted>0</tilted></_>
    <_>
      <rects>
        <_>
          18 24 18 8 -1.</_>
        <_>
          18 24 9 4 2.</_>
        <_>
          27 28 9 4 2.</_></rects>
      <tilted>0</tilted></_>
    <_>
      <rects>
        <_>
          19 14 20 16 -1.</_>
        <_>
          19 14 10 8 2.</_>
        <_>
          29 22 10 8 2.</_></rects>
      <tilted>0</tilted></_>
    <_>
      <rects>
        <_>
          22 19 10 24 -1.</_>
        <_>
          22 19 5 12 2.</_>
        <_>
          27 31 5 12 2.</_></rects>
      <tilted>0</tilted></_>
    <_>
      <rects>
        <_>
          22 38 6 9 -1.</_>
        <_>
          22 41 6 3 3.</_></rects>
      <tilted>0</tilted></_>
    <_>
      <rects>
        <_>
          22 61 42 2 -1.</_>
        <_>
          22 61 21 1 2.</_>
        <_>
          43 62 21 1 2.</_></rects>
      <tilted>0</tilted></_>
    <_>
      <rects>
        <_>
          25 19 12 7 -1.</_>
        <_>
          29 19 4 7 3.</_></rects>
      <tilted>0</tilted></_>
    <_>
      <rects>
        <_>
          25 44 15 6 -1.</_>
        <_>
          25 46 15 2 3.</_></rects>
      <tilted>0</tilted></_>
    <_>
      <rects>
        <_>
          26 12 17 9 -1.</_>
        <_>
          26 15 17 3 3.</_></rects>
      <tilted>0</tilted></_>
    <_>
      <rects>
        <_>
          27 17 9 10 -1.</_>
        <_>
          30 17 3 10 3.</_></rects>
      <tilted>0</tilted></_>
    <_>
      <rects>
        <_>
          27 49 24 8 -1.</_>
        <_>
          27 49 12 4 2.</_>
        <_>
          39 53 12 4 2.</_></rects>
      <tilted>0</tilted></_>
    <_>
      <rects>
        <_>
          28 56 16 8 -1.</_>
        <_>
          28 60 16 4 2.</_></rects>
      <tilted>0</tilted></_>
    <_>
      <rects>
        <_>
          30 17 12 12 -1.</_>
        <_>
          36 17 6 12 2.</_></rects>
      <tilted>0</tilted></_>
    <_>
      <rects>
        <_>
          36 32 11 20 -1.</_>
        <_>
          36 42 11 10 2.</_></rects>
      <tilted>0</tilted></_>
    <_>
      <rects>
        <_>
          38 0 26 10 -1.</_>
        <_>
          38 0 13 5 2.</_>
        <_>
          51 5 13 5 2.</_></rects>
      <tilted>0</tilted></_>
    <_>
      <rects>
        <_>
          39 2 18 10 -1.</_>
        <_>
          39 7 18 5 2.</_></rects>
      <tilted>0</tilted></_>
    <_>
      <rects>
        <_>
          40 25 15 6 -1.</_>
        <_>
          40 28 15 3 2.</_></rects>
      <tilted>0</tilted></_>
    <_>
      <rects>
        <_>
          41 24 8 6 -1.</_>
        <_>
          41 27 8 3 2.</_></rects>
      <tilted>0</tilted></_>
    <_>
      <rects>
        <_>
          43 24 10 12 -1.</_>
        <_>
          43 24 5 6 2.</_>
        <_>
          48 30 5 6 2.</_></rects>
      <tilted>0</tilted></_>
    <_>
      <rects>
        <_>
          43 33 9 15 -1.</_>
        <_>
          43 38 9 5 3.</_></rects>
      <tilted>0</tilted></_>
    <_>
      <rects>
        <_>
          44 9 16 25 -1.</_>
        <_>
          52 9 8 25 2.</_></rects>
      <tilted>0</tilted></_>
    <_>
      <rects>
        <_>
          46 8 14 42 -1.</_>
        <_>
          53 8 7 42 2.</_></rects>
      <tilted>0</tilted></_></features></cascade>
</opencv_storage>
