<?xml version="1.0"?>
<opencv_storage>
<cascade>
  <stageType>BOOST</stageType>
  <featureType>HAAR</featureType>
  <height>24</height>
  <width>24</width>
  <stageParams>
    <boostType>GAB</boostType>
    <minHitRate>9.9500000476837158e-01</minHitRate>
    <maxFalseAlarm>5.0000000000000000e-01</maxFalseAlarm>
    <weightTrimRate>9.4999998807907104e-01</weightTrimRate>
    <maxDepth>1</maxDepth>
    <maxWeakCount>100</maxWeakCount></stageParams>
  <featureParams>
    <maxCatCount>0</maxCatCount>
    <featSize>1</featSize>
    <mode>BASIC</mode></featureParams>
  <stageNum>15</stageNum>
  <stages>
    <!-- stage 0 -->
    <_>
      <maxWeakCount>3</maxWeakCount>
      <stageThreshold>-9.6338820457458496e-01</stageThreshold>
      <weakClassifiers>
        <_>
          <internalNodes>
            0 -1 19 -1.7691355943679810e-01</internalNodes>
          <leafValues>
            7.8181821107864380e-01 -8.6528497934341431e-01</leafValues></_>
        <_>
          <internalNodes>
            0 -1 25 5.1734815351665020e-03</internalNodes>
          <leafValues>
            -9.3077552318572998e-01 6.0621702671051025e-01</leafValues></_>
        <_>
          <internalNodes>
            0 -1 24 -1.8528169393539429e-01</internalNodes>
          <leafValues>
            9.2123806476593018e-01 -7.0432025194168091e-01</leafValues></_></weakClassifiers></_>
    <!-- stage 1 -->
    <_>
      <maxWeakCount>2</maxWeakCount>
      <stageThreshold>-5.5611389875411987e-01</stageThreshold>
      <weakClassifiers>
        <_>
          <internalNodes>
            0 -1 12 -1.6714963316917419e-01</internalNodes>
          <leafValues>
            6.7441862821578979e-01 -8.0402010679244995e-01</leafValues></_>
        <_>
          <internalNodes>
            0 -1 16 -1.1734126601368189e-03</internalNodes>
          <leafValues>
            2.4790622293949127e-01 -9.7301554679870605e-01</leafValues></_></weakClassifiers></_>
    <!-- stage 2 -->
    <_>
      <maxWeakCount>2</maxWeakCount>
      <stageThreshold>-6.7614758014678955e-01</stageThreshold>
      <weakClassifiers>
        <_>
          <internalNodes>
            0 -1 7 -1.1957085132598877e-01</internalNodes>
          <leafValues>
            1.0588235408067703e-01 -8.4269660711288452e-01</leafValues></_>
        <_>
          <internalNodes>
            0 -1 36 4.5656156726181507e-04</internalNodes>
          <leafValues>
            -1. 1.6654905676841736e-01</leafValues></_></weakClassifiers></_>
    <!-- stage 3 -->
    <_>
      <maxWeakCount>3</maxWeakCount>
      <stageThreshold>-1.4208755493164063e+00</stageThreshold>
      <weakClassifiers>
        <_>
          <internalNodes>
            0 -1 6 -1.2222886085510254e-01</internalNodes>
          <leafValues>
            4.0000000596046448e-01 -8.5983824729919434e-01</leafValues></_>
        <_>
          <internalNodes>
            0 -1 18 -1.8601980805397034e-01</internalNodes>
          <leafValues>
            3.5815459489822388e-01 -8.7592649459838867e-01</leafValues></_>
        <_>
          <internalNodes>
            0 -1 1 2.5743356673046947e-04</internalNodes>
          <leafValues>
            3.1488919258117676e-01 -1.</leafValues></_></weakClassifiers></_>
    <!-- stage 4 -->
    <_>
      <maxWeakCount>3</maxWeakCount>
      <stageThreshold>-1.3646811246871948e+00</stageThreshold>
      <weakClassifiers>
        <_>
          <internalNodes>
            0 -1 1 -6.2841078033670783e-05</internalNodes>
          <leafValues>
            -9.2899405956268311e-01 2.2330096364021301e-01</leafValues></_>
        <_>
          <internalNodes>
            0 -1 0 -5.8032471686601639e-02</internalNodes>
          <leafValues>
            6.3944029808044434e-01 -7.9815596342086792e-01</leafValues></_>
        <_>
          <internalNodes>
            0 -1 28 -7.2439938783645630e-02</internalNodes>
          <leafValues>
            5.0708454847335815e-01 -7.8982615470886230e-01</leafValues></_></weakClassifiers></_>
    <!-- stage 5 -->
    <_>
      <maxWeakCount>3</maxWeakCount>
      <stageThreshold>-1.0968538522720337e+00</stageThreshold>
      <weakClassifiers>
        <_>
          <internalNodes>
            0 -1 20 -1.2162619829177856e-01</internalNodes>
          <leafValues>
            6.0000002384185791e-01 -7.6847290992736816e-01</leafValues></_>
        <_>
          <internalNodes>
            0 -1 37 -1.8436036771163344e-03</internalNodes>
          <leafValues>
            4.4352701306343079e-01 -7.9803538322448730e-01</leafValues></_>
        <_>
          <internalNodes>
            0 -1 1 -2.0549957116600126e-04</internalNodes>
          <leafValues>
            -7.7190792560577393e-01 4.9522691965103149e-01</leafValues></_></weakClassifiers></_>
    <!-- stage 6 -->
    <_>
      <maxWeakCount>3</maxWeakCount>
      <stageThreshold>-1.2338874340057373e+00</stageThreshold>
      <weakClassifiers>
        <_>
          <internalNodes>
            0 -1 13 -3.5072770714759827e-01</internalNodes>
          <leafValues>
            1. -7.4285715818405151e-01</leafValues></_>
        <_>
          <internalNodes>
            0 -1 32 -3.8185017183423042e-04</internalNodes>
          <leafValues>
            2.5067466497421265e-01 -8.9147084951400757e-01</leafValues></_>
        <_>
          <internalNodes>
            0 -1 17 3.7272585905157030e-04</internalNodes>
          <leafValues>
            -1. 4.0044060349464417e-01</leafValues></_></weakClassifiers></_>
    <!-- stage 7 -->
    <_>
      <maxWeakCount>2</maxWeakCount>
      <stageThreshold>-9.0374106168746948e-01</stageThreshold>
      <weakClassifiers>
        <_>
          <internalNodes>
            0 -1 23 1.4175819233059883e-03</internalNodes>
          <leafValues>
            4.7619048506021500e-02 -9.4285714626312256e-01</leafValues></_>
        <_>
          <internalNodes>
            0 -1 33 3.3316123299300671e-03</internalNodes>
          <leafValues>
            1.0507395863533020e-01 -9.5136010646820068e-01</leafValues></_></weakClassifiers></_>
    <!-- stage 8 -->
    <_>
      <maxWeakCount>4</maxWeakCount>
      <stageThreshold>-1.2734135389328003e+00</stageThreshold>
      <weakClassifiers>
        <_>
          <internalNodes>
            0 -1 11 -1.3923704391345382e-03</internalNodes>
          <leafValues>
            -2.3636363446712494e-01 -9.1304349899291992e-01</leafValues></_>
        <_>
          <internalNodes>
            0 -1 3 -3.3682830689940602e-05</internalNodes>
          <leafValues>
            -9.1011691093444824e-01 1.4082278311252594e-01</leafValues></_>
        <_>
          <internalNodes>
            0 -1 26 8.6178755736909807e-05</internalNodes>
          <leafValues>
            -8.2997602224349976e-01 3.0040380358695984e-01</leafValues></_>
        <_>
          <internalNodes>
            0 -1 34 3.0892802169546485e-04</internalNodes>
          <leafValues>
            -8.0159664154052734e-01 3.7039142847061157e-01</leafValues></_></weakClassifiers></_>
    <!-- stage 9 -->
    <_>
      <maxWeakCount>3</maxWeakCount>
      <stageThreshold>-1.0543299913406372e+00</stageThreshold>
      <weakClassifiers>
        <_>
          <internalNodes>
            0 -1 10 -2.8127133846282959e-03</internalNodes>
          <leafValues>
            -1.9753086566925049e-01 -9.2831540107727051e-01</leafValues></_>
        <_>
          <internalNodes>
            0 -1 2 -6.0936264693737030e-02</internalNodes>
          <leafValues>
            7.9977259039878845e-02 -9.5194625854492188e-01</leafValues></_>
        <_>
          <internalNodes>
            0 -1 30 -5.3212977945804596e-04</internalNodes>
          <leafValues>
            -9.3677639961242676e-01 2.1513327956199646e-01</leafValues></_></weakClassifiers></_>
    <!-- stage 10 -->
    <_>
      <maxWeakCount>3</maxWeakCount>
      <stageThreshold>-1.0719286203384399e+00</stageThreshold>
      <weakClassifiers>
        <_>
          <internalNodes>
            0 -1 31 8.6367205949500203e-04</internalNodes>
          <leafValues>
            -2.7777779102325439e-01 -9.2337167263031006e-01</leafValues></_>
        <_>
          <internalNodes>
            0 -1 21 1.3351911911740899e-04</internalNodes>
          <leafValues>
            1.0487080365419388e-01 -9.7340178489685059e-01</leafValues></_>
        <_>
          <internalNodes>
            0 -1 17 6.0158949345350266e-03</internalNodes>
          <leafValues>
            1.7925098538398743e-01 -1.</leafValues></_></weakClassifiers></_>
    <!-- stage 11 -->
    <_>
      <maxWeakCount>4</maxWeakCount>
      <stageThreshold>-1.4255669116973877e+00</stageThreshold>
      <weakClassifiers>
        <_>
          <internalNodes>
            0 -1 3 1.6068854165496305e-05</internalNodes>
          <leafValues>
            -3.0653265118598938e-01 -9.5041322708129883e-01</leafValues></_>
        <_>
          <internalNodes>
            0 -1 5 -2.9174381779739633e-05</internalNodes>
          <leafValues>
            -8.4714597463607788e-01 1.6176760196685791e-01</leafValues></_>
        <_>
          <internalNodes>
            0 -1 39 2.1105569612700492e-04</internalNodes>
          <leafValues>
            2.7159193158149719e-01 -8.3615732192993164e-01</leafValues></_>
        <_>
          <internalNodes>
            0 -1 4 3.2912510505411774e-05</internalNodes>
          <leafValues>
            2.9614499211311340e-01 -9.0851324796676636e-01</leafValues></_></weakClassifiers></_>
    <!-- stage 12 -->
    <_>
      <maxWeakCount>3</maxWeakCount>
      <stageThreshold>-1.1313004493713379e+00</stageThreshold>
      <weakClassifiers>
        <_>
          <internalNodes>
            0 -1 14 -1.6085070456028916e-05</internalNodes>
          <leafValues>
            -9.2771083116531372e-01 -3.1250000000000000e-01</leafValues></_>
        <_>
          <internalNodes>
            0 -1 41 -9.6192488854285330e-05</internalNodes>
          <leafValues>
            -9.7280716896057129e-01 1.1863587051630020e-01</leafValues></_>
        <_>
          <internalNodes>
            0 -1 40 -1.1986708159383852e-05</internalNodes>
          <leafValues>
            -9.3743634223937988e-01 2.4130634963512421e-01</leafValues></_></weakClassifiers></_>
    <!-- stage 13 -->
    <_>
      <maxWeakCount>5</maxWeakCount>
      <stageThreshold>-1.6194586753845215e+00</stageThreshold>
      <weakClassifiers>
        <_>
          <internalNodes>
            0 -1 29 -6.3672408461570740e-02</internalNodes>
          <leafValues>
            5.0000000000000000e-01 -7.3849880695343018e-01</leafValues></_>
        <_>
          <internalNodes>
            0 -1 8 -1.5054325922392309e-04</internalNodes>
          <leafValues>
            -8.2770448923110962e-01 2.5289744138717651e-01</leafValues></_>
        <_>
          <internalNodes>
            0 -1 3 1.6991130542010069e-04</internalNodes>
          <leafValues>
            3.0939063429832458e-01 -8.0078315734863281e-01</leafValues></_>
        <_>
          <internalNodes>
            0 -1 35 4.0173344314098358e-02</internalNodes>
          <leafValues>
            -6.4006626605987549e-01 4.4714450836181641e-01</leafValues></_>
        <_>
          <internalNodes>
            0 -1 15 -9.1313924640417099e-03</internalNodes>
          <leafValues>
            -1. 3.0038326978683472e-01</leafValues></_></weakClassifiers></_>
    <!-- stage 14 -->
    <_>
      <maxWeakCount>5</maxWeakCount>
      <stageThreshold>-1.2968859672546387e+00</stageThreshold>
      <weakClassifiers>
        <_>
          <internalNodes>
            0 -1 38 -3.5146164009347558e-04</internalNodes>
          <leafValues>
            -1.2977099418640137e-01 -8.8387095928192139e-01</leafValues></_>
        <_>
          <internalNodes>
            0 -1 22 -8.2452810602262616e-05</internalNodes>
          <leafValues>
            -8.9719676971435547e-01 1.3670499622821808e-01</leafValues></_>
        <_>
          <internalNodes>
            0 -1 42 -3.2170140912057832e-05</internalNodes>
          <leafValues>
            -9.2212420701980591e-01 2.5601500272750854e-01</leafValues></_>
        <_>
          <internalNodes>
            0 -1 27 6.0286244843155146e-04</internalNodes>
          <leafValues>
            -9.1333889961242676e-01 2.8452238440513611e-01</leafValues></_>
        <_>
          <internalNodes>
            0 -1 9 2.9892466045566835e-05</internalNodes>
          <leafValues>
            3.1424501538276672e-01 -8.1045562028884888e-01</leafValues></_></weakClassifiers></_></stages>
  <features>
    <_>
      <rects>
        <_>
          0 0 18 12 -1.</_>
        <_>
          0 0 9 6 2.</_>
        <_>
          9 6 9 6 2.</_></rects>
      <tilted>0</tilted></_>
    <_>
      <rects>
        <_>
          0 0 24 1 -1.</_>
        <_>
          12 0 12 1 2.</_></rects>
      <tilted>0</tilted></_>
    <_>
      <rects>
        <_>
          0 0 18 12 -1.</_>
        <_>
          0 6 18 6 2.</_></rects>
      <tilted>0</tilted></_>
    <_>
      <rects>
        <_>
          0 1 2 6 -1.</_>
        <_>
          0 4 2 3 2.</_></rects>
      <tilted>0</tilted></_>
    <_>
      <rects>
        <_>
          0 1 8 4 -1.</_>
        <_>
          4 1 4 4 2.</_></rects>
      <tilted>0</tilted></_>
    <_>
      <rects>
        <_>
          0 2 1 18 -1.</_>
        <_>
          0 8 1 6 3.</_></rects>
      <tilted>0</tilted></_>
    <_>
      <rects>
        <_>
          0 7 14 8 -1.</_>
        <_>
          7 7 7 8 2.</_></rects>
      <tilted>0</tilted></_>
    <_>
      <rects>
        <_>
          0 8 14 7 -1.</_>
        <_>
          7 8 7 7 2.</_></rects>
      <tilted>0</tilted></_>
    <_>
      <rects>
        <_>
          0 16 5 4 -1.</_>
        <_>
          0 18 5 2 2.</_></rects>
      <tilted>0</tilted></_>
    <_>
      <rects>
        <_>
          0 19 5 2 -1.</_>
        <_>
          0 20 5 1 2.</_></rects>
      <tilted>0</tilted></_>
    <_>
      <rects>
        <_>
          1 22 18 2 -1.</_>
        <_>
          10 22 9 2 2.</_></rects>
      <tilted>0</tilted></_>
    <_>
      <rects>
        <_>
          1 22 20 2 -1.</_>
        <_>
          11 22 10 2 2.</_></rects>
      <tilted>0</tilted></_>
    <_>
      <rects>
        <_>
          2 9 18 7 -1.</_>
        <_>
          8 9 6 7 3.</_></rects>
      <tilted>0</tilted></_>
    <_>
      <rects>
        <_>
          2 13 21 8 -1.</_>
        <_>
          9 13 7 8 3.</_></rects>
      <tilted>0</tilted></_>
    <_>
      <rects>
        <_>
          2 19 6 3 -1.</_>
        <_>
          5 19 3 3 2.</_></rects>
      <tilted>0</tilted></_>
    <_>
      <rects>
        <_>
          2 19 22 4 -1.</_>
        <_>
          2 21 22 2 2.</_></rects>
      <tilted>0</tilted></_>
    <_>
      <rects>
        <_>
          2 23 15 1 -1.</_>
        <_>
          7 23 5 1 3.</_></rects>
      <tilted>0</tilted></_>
    <_>
      <rects>
        <_>
          2 23 20 1 -1.</_>
        <_>
          12 23 10 1 2.</_></rects>
      <tilted>0</tilted></_>
    <_>
      <rects>
        <_>
          3 0 17 24 -1.</_>
        <_>
          3 8 17 8 3.</_></rects>
      <tilted>0</tilted></_>
    <_>
      <rects>
        <_>
          3 8 21 8 -1.</_>
        <_>
          10 8 7 8 3.</_></rects>
      <tilted>0</tilted></_>
    <_>
      <rects>
        <_>
          3 14 21 3 -1.</_>
        <_>
          10 14 7 3 3.</_></rects>
      <tilted>0</tilted></_>
    <_>
      <rects>
        <_>
          5 1 12 1 -1.</_>
        <_>
          9 1 4 1 3.</_></rects>
      <tilted>0</tilted></_>
    <_>
      <rects>
        <_>
          5 16 2 6 -1.</_>
        <_>
          5 18 2 2 3.</_></rects>
      <tilted>0</tilted></_>
    <_>
      <rects>
        <_>
          5 22 14 2 -1.</_>
        <_>
          12 22 7 2 2.</_></rects>
      <tilted>0</tilted></_>
    <_>
      <rects>
        <_>
          6 1 7 21 -1.</_>
        <_>
          6 8 7 7 3.</_></rects>
      <tilted>0</tilted></_>
    <_>
      <rects>
        <_>
          7 21 6 3 -1.</_>
        <_>
          7 22 6 1 3.</_></rects>
      <tilted>0</tilted></_>
    <_>
      <rects>
        <_>
          7 23 4 1 -1.</_>
        <_>
          9 23 2 1 2.</_></rects>
      <tilted>0</tilted></_>
    <_>
      <rects>
        <_>
          7 23 8 1 -1.</_>
        <_>
          11 23 4 1 2.</_></rects>
      <tilted>0</tilted></_>
    <_>
      <rects>
        <_>
          8 0 9 12 -1.</_>
        <_>
          8 6 9 6 2.</_></rects>
      <tilted>0</tilted></_>
    <_>
      <rects>
        <_>
          8 1 12 18 -1.</_>
        <_>
          8 1 6 9 2.</_>
        <_>
          14 10 6 9 2.</_></rects>
      <tilted>0</tilted></_>
    <_>
      <rects>
        <_>
          8 19 7 3 -1.</_>
        <_>
          8 20 7 1 3.</_></rects>
      <tilted>0</tilted></_>
    <_>
      <rects>
        <_>
          8 19 8 3 -1.</_>
        <_>
          8 20 8 1 3.</_></rects>
      <tilted>0</tilted></_>
    <_>
      <rects>
        <_>
          8 22 8 1 -1.</_>
        <_>
          12 22 4 1 2.</_></rects>
      <tilted>0</tilted></_>
    <_>
      <rects>
        <_>
          8 23 10 1 -1.</_>
        <_>
          13 23 5 1 2.</_></rects>
      <tilted>0</tilted></_>
    <_>
      <rects>
        <_>
          10 22 4 2 -1.</_>
        <_>
          10 22 2 1 2.</_>
        <_>
          12 23 2 1 2.</_></rects>
      <tilted>0</tilted></_>
    <_>
      <rects>
        <_>
          12 0 12 14 -1.</_>
        <_>
          12 0 6 7 2.</_>
        <_>
          18 7 6 7 2.</_></rects>
      <tilted>0</tilted></_>
    <_>
      <rects>
        <_>
          12 21 1 3 -1.</_>
        <_>
          12 22 1 1 3.</_></rects>
      <tilted>0</tilted></_>
    <_>
      <rects>
        <_>
          13 22 6 2 -1.</_>
        <_>
          15 22 2 2 3.</_></rects>
      <tilted>0</tilted></_>
    <_>
      <rects>
        <_>
          16 21 1 2 -1.</_>
        <_>
          16 22 1 1 2.</_></rects>
      <tilted>0</tilted></_>
    <_>
      <rects>
        <_>
          19 19 5 3 -1.</_>
        <_>
          19 20 5 1 3.</_></rects>
      <tilted>0</tilted></_>
    <_>
      <rects>
        <_>
          20 19 1 3 -1.</_>
        <_>
          20 20 1 1 3.</_></rects>
      <tilted>0</tilted></_>
    <_>
      <rects>
        <_>
          20 23 4 1 -1.</_>
        <_>
          22 23 2 1 2.</_></rects>
      <tilted>0</tilted></_>
    <_>
      <rects>
        <_>
          21 0 1 9 -1.</_>
        <_>
          21 3 1 3 3.</_></rects>
      <tilted>0</tilted></_></features></cascade>
</opencv_storage>
