<?xml version="1.0"?>
<opencv_storage>
<cascade>
  <stageType>BOOST</stageType>
  <featureType>HAAR</featureType>
  <height>64</height>
  <width>32</width>
  <stageParams>
    <boostType>GAB</boostType>
    <minHitRate>9.9500000476837158e-01</minHitRate>
    <maxFalseAlarm>5.0000000000000000e-01</maxFalseAlarm>
    <weightTrimRate>9.4999998807907104e-01</weightTrimRate>
    <maxDepth>1</maxDepth>
    <maxWeakCount>100</maxWeakCount></stageParams>
  <featureParams>
    <maxCatCount>0</maxCatCount>
    <featSize>1</featSize>
    <mode>BASIC</mode></featureParams>
  <stageNum>20</stageNum>
  <stages>
    <!-- stage 0 -->
    <_>
      <maxWeakCount>3</maxWeakCount>
      <stageThreshold>-1.0025000572204590e+00</stageThreshold>
      <weakClassifiers>
        <_>
          <internalNodes>
            0 -1 4 -1.2609907984733582e-01</internalNodes>
          <leafValues>
            9.7402596473693848e-01 -8.8700562715530396e-01</leafValues></_>
        <_>
          <internalNodes>
            0 -1 23 -1.7352807521820068e-01</internalNodes>
          <leafValues>
            9.5987945795059204e-01 -6.9446623325347900e-01</leafValues></_>
        <_>
          <internalNodes>
            0 -1 9 1.3568662106990814e-03</internalNodes>
          <leafValues>
            5.7897180318832397e-01 -9.7847521305084229e-01</leafValues></_></weakClassifiers></_>
    <!-- stage 1 -->
    <_>
      <maxWeakCount>3</maxWeakCount>
      <stageThreshold>-9.1956996917724609e-01</stageThreshold>
      <weakClassifiers>
        <_>
          <internalNodes>
            0 -1 28 -1.5541782975196838e-01</internalNodes>
          <leafValues>
            9.7435897588729858e-01 -8.9772725105285645e-01</leafValues></_>
        <_>
          <internalNodes>
            0 -1 71 2.9744633138761856e-06</internalNodes>
          <leafValues>
            -8.2026547193527222e-01 7.7377456426620483e-01</leafValues></_>
        <_>
          <internalNodes>
            0 -1 43 5.3245094022713602e-06</internalNodes>
          <leafValues>
            -7.0572179555892944e-01 7.9842275381088257e-01</leafValues></_></weakClassifiers></_>
    <!-- stage 2 -->
    <_>
      <maxWeakCount>4</maxWeakCount>
      <stageThreshold>-1.4785081148147583e+00</stageThreshold>
      <weakClassifiers>
        <_>
          <internalNodes>
            0 -1 65 8.0435611307621002e-02</internalNodes>
          <leafValues>
            -8.2222223281860352e-01 8.9189189672470093e-01</leafValues></_>
        <_>
          <internalNodes>
            0 -1 35 -4.2276062071323395e-02</internalNodes>
          <leafValues>
            8.4831780195236206e-01 -5.5732792615890503e-01</leafValues></_>
        <_>
          <internalNodes>
            0 -1 68 1.7568435519933701e-02</internalNodes>
          <leafValues>
            -6.8326765298843384e-01 6.2892758846282959e-01</leafValues></_>
        <_>
          <internalNodes>
            0 -1 53 8.3722952695097774e-05</internalNodes>
          <leafValues>
            -8.6452567577362061e-01 5.8430969715118408e-01</leafValues></_></weakClassifiers></_>
    <!-- stage 3 -->
    <_>
      <maxWeakCount>4</maxWeakCount>
      <stageThreshold>-1.1357926130294800e+00</stageThreshold>
      <weakClassifiers>
        <_>
          <internalNodes>
            0 -1 64 4.2647421360015869e-02</internalNodes>
          <leafValues>
            -6.5625000000000000e-01 7.0967739820480347e-01</leafValues></_>
        <_>
          <internalNodes>
            0 -1 1 9.5888033509254456e-02</internalNodes>
          <leafValues>
            -7.2607314586639404e-01 6.1728513240814209e-01</leafValues></_>
        <_>
          <internalNodes>
            0 -1 8 -4.0907375514507294e-02</internalNodes>
          <leafValues>
            5.7404869794845581e-01 -6.0300016403198242e-01</leafValues></_>
        <_>
          <internalNodes>
            0 -1 69 2.4518948048353195e-02</internalNodes>
          <leafValues>
            -4.4113868474960327e-01 8.4953063726425171e-01</leafValues></_></weakClassifiers></_>
    <!-- stage 4 -->
    <_>
      <maxWeakCount>4</maxWeakCount>
      <stageThreshold>-9.0825939178466797e-01</stageThreshold>
      <weakClassifiers>
        <_>
          <internalNodes>
            0 -1 48 -1.1497887969017029e-01</internalNodes>
          <leafValues>
            4.9425286054611206e-01 -7.4850296974182129e-01</leafValues></_>
        <_>
          <internalNodes>
            0 -1 14 1.6289245104417205e-04</internalNodes>
          <leafValues>
            3.2111960649490356e-01 -7.8649067878723145e-01</leafValues></_>
        <_>
          <internalNodes>
            0 -1 51 3.3786585845518857e-05</internalNodes>
          <leafValues>
            -7.1024906635284424e-01 4.0051072835922241e-01</leafValues></_>
        <_>
          <internalNodes>
            0 -1 80 3.1575286993756890e-04</internalNodes>
          <leafValues>
            3.5495963692665100e-01 -8.8138675689697266e-01</leafValues></_></weakClassifiers></_>
    <!-- stage 5 -->
    <_>
      <maxWeakCount>5</maxWeakCount>
      <stageThreshold>-1.0604732036590576e+00</stageThreshold>
      <weakClassifiers>
        <_>
          <internalNodes>
            0 -1 6 -1.2544833123683929e-01</internalNodes>
          <leafValues>
            3.5849055647850037e-01 -8.1081080436706543e-01</leafValues></_>
        <_>
          <internalNodes>
            0 -1 70 5.6542776525020599e-02</internalNodes>
          <leafValues>
            -5.2233791351318359e-01 6.8427634239196777e-01</leafValues></_>
        <_>
          <internalNodes>
            0 -1 45 5.0790617242455482e-03</internalNodes>
          <leafValues>
            -4.4260102510452271e-01 6.7364686727523804e-01</leafValues></_>
        <_>
          <internalNodes>
            0 -1 16 -2.1263945382088423e-03</internalNodes>
          <leafValues>
            -7.9688245058059692e-01 3.9688974618911743e-01</leafValues></_>
        <_>
          <internalNodes>
            0 -1 84 1.3200192188378423e-04</internalNodes>
          <leafValues>
            3.4285756945610046e-01 -9.3483012914657593e-01</leafValues></_></weakClassifiers></_>
    <!-- stage 6 -->
    <_>
      <maxWeakCount>4</maxWeakCount>
      <stageThreshold>-1.0506875514984131e+00</stageThreshold>
      <weakClassifiers>
        <_>
          <internalNodes>
            0 -1 83 -2.4807482259348035e-04</internalNodes>
          <leafValues>
            -8.9565217494964600e-01 1.5107913315296173e-01</leafValues></_>
        <_>
          <internalNodes>
            0 -1 52 -1.6637735534459352e-03</internalNodes>
          <leafValues>
            3.3088418841362000e-01 -7.3260521888732910e-01</leafValues></_>
        <_>
          <internalNodes>
            0 -1 40 2.6365133817307651e-04</internalNodes>
          <leafValues>
            2.4297361075878143e-01 -9.1532665491104126e-01</leafValues></_>
        <_>
          <internalNodes>
            0 -1 24 -2.8359561692923307e-03</internalNodes>
          <leafValues>
            3.5316637158393860e-01 -7.1213513612747192e-01</leafValues></_></weakClassifiers></_>
    <!-- stage 7 -->
    <_>
      <maxWeakCount>4</maxWeakCount>
      <stageThreshold>-1.1240451335906982e+00</stageThreshold>
      <weakClassifiers>
        <_>
          <internalNodes>
            0 -1 82 -1.8421365530230105e-04</internalNodes>
          <leafValues>
            -8.9999997615814209e-01 5.1948051899671555e-02</leafValues></_>
        <_>
          <internalNodes>
            0 -1 26 1.6048446923377924e-05</internalNodes>
          <leafValues>
            2.8302899003028870e-01 -8.4718525409698486e-01</leafValues></_>
        <_>
          <internalNodes>
            0 -1 75 -3.0053673981456086e-05</internalNodes>
          <leafValues>
            -9.6534484624862671e-01 2.7390998601913452e-01</leafValues></_>
        <_>
          <internalNodes>
            0 -1 30 -8.0990248534362763e-05</internalNodes>
          <leafValues>
            -7.8098404407501221e-01 2.8034943342208862e-01</leafValues></_></weakClassifiers></_>
    <!-- stage 8 -->
    <_>
      <maxWeakCount>5</maxWeakCount>
      <stageThreshold>-9.1152107715606689e-01</stageThreshold>
      <weakClassifiers>
        <_>
          <internalNodes>
            0 -1 41 8.6316606029868126e-05</internalNodes>
          <leafValues>
            -8.0701756477355957e-01 7.1428574621677399e-02</leafValues></_>
        <_>
          <internalNodes>
            0 -1 44 8.1620615674182773e-05</internalNodes>
          <leafValues>
            2.6020291447639465e-01 -8.1549417972564697e-01</leafValues></_>
        <_>
          <internalNodes>
            0 -1 20 -1.3977635535411537e-04</internalNodes>
          <leafValues>
            -6.6756290197372437e-01 3.8103684782981873e-01</leafValues></_>
        <_>
          <internalNodes>
            0 -1 25 3.0987692298367620e-05</internalNodes>
          <leafValues>
            -6.3535827398300171e-01 3.5010966658592224e-01</leafValues></_>
        <_>
          <internalNodes>
            0 -1 31 -8.9761946583166718e-05</internalNodes>
          <leafValues>
            -8.9860200881958008e-01 2.5481358170509338e-01</leafValues></_></weakClassifiers></_>
    <!-- stage 9 -->
    <_>
      <maxWeakCount>4</maxWeakCount>
      <stageThreshold>-9.8475497961044312e-01</stageThreshold>
      <weakClassifiers>
        <_>
          <internalNodes>
            0 -1 61 2.8062663041055202e-03</internalNodes>
          <leafValues>
            -7.0322579145431519e-01 2.7272728085517883e-01</leafValues></_>
        <_>
          <internalNodes>
            0 -1 19 2.8728912002407014e-04</internalNodes>
          <leafValues>
            2.7749311923980713e-01 -8.9059680700302124e-01</leafValues></_>
        <_>
          <internalNodes>
            0 -1 54 -1.8313550390303135e-04</internalNodes>
          <leafValues>
            3.9067295193672180e-01 -6.7592298984527588e-01</leafValues></_>
        <_>
          <internalNodes>
            0 -1 85 -6.4834544900804758e-05</internalNodes>
          <leafValues>
            -8.5905241966247559e-01 2.9343926906585693e-01</leafValues></_></weakClassifiers></_>
    <!-- stage 10 -->
    <_>
      <maxWeakCount>4</maxWeakCount>
      <stageThreshold>-1.2864998579025269e+00</stageThreshold>
      <weakClassifiers>
        <_>
          <internalNodes>
            0 -1 2 1.6240756958723068e-02</internalNodes>
          <leafValues>
            -5.2606636285781860e-01 6.7441862821578979e-01</leafValues></_>
        <_>
          <internalNodes>
            0 -1 73 9.3748159706592560e-03</internalNodes>
          <leafValues>
            -4.6721655130386353e-01 7.0277923345565796e-01</leafValues></_>
        <_>
          <internalNodes>
            0 -1 38 -5.6655444495845586e-05</internalNodes>
          <leafValues>
            -7.5029420852661133e-01 4.2072588205337524e-01</leafValues></_>
        <_>
          <internalNodes>
            0 -1 79 7.4760777351912111e-05</internalNodes>
          <leafValues>
            3.9556932449340820e-01 -7.1394276618957520e-01</leafValues></_></weakClassifiers></_>
    <!-- stage 11 -->
    <_>
      <maxWeakCount>5</maxWeakCount>
      <stageThreshold>-1.0522812604904175e+00</stageThreshold>
      <weakClassifiers>
        <_>
          <internalNodes>
            0 -1 49 -1.1573847383260727e-02</internalNodes>
          <leafValues>
            7.5999999046325684e-01 -5.8823531866073608e-01</leafValues></_>
        <_>
          <internalNodes>
            0 -1 55 9.8662520758807659e-04</internalNodes>
          <leafValues>
            -6.3110643625259399e-01 3.8416385650634766e-01</leafValues></_>
        <_>
          <internalNodes>
            0 -1 37 1.6060570487752557e-04</internalNodes>
          <leafValues>
            4.3811237812042236e-01 -6.3832318782806396e-01</leafValues></_>
        <_>
          <internalNodes>
            0 -1 34 1.1333040311001241e-04</internalNodes>
          <leafValues>
            3.4557378292083740e-01 -9.1252213716506958e-01</leafValues></_>
        <_>
          <internalNodes>
            0 -1 5 -1.8065546173602343e-03</internalNodes>
          <leafValues>
            6.2273317575454712e-01 -5.5546039342880249e-01</leafValues></_></weakClassifiers></_>
    <!-- stage 12 -->
    <_>
      <maxWeakCount>4</maxWeakCount>
      <stageThreshold>-6.5299350023269653e-01</stageThreshold>
      <weakClassifiers>
        <_>
          <internalNodes>
            0 -1 77 -1.8379489483777434e-04</internalNodes>
          <leafValues>
            -9.2857140302658081e-01 -2.3529412224888802e-02</leafValues></_>
        <_>
          <internalNodes>
            0 -1 32 -1.4962780289351940e-02</internalNodes>
          <leafValues>
            7.1864229440689087e-01 -3.6189624667167664e-01</leafValues></_>
        <_>
          <internalNodes>
            0 -1 59 4.3754122452810407e-04</internalNodes>
          <leafValues>
            -5.4479384422302246e-01 4.6250569820404053e-01</leafValues></_>
        <_>
          <internalNodes>
            0 -1 13 1.8272086163051426e-04</internalNodes>
          <leafValues>
            2.7722597122192383e-01 -9.7784942388534546e-01</leafValues></_></weakClassifiers></_>
    <!-- stage 13 -->
    <_>
      <maxWeakCount>4</maxWeakCount>
      <stageThreshold>-5.1710540056228638e-01</stageThreshold>
      <weakClassifiers>
        <_>
          <internalNodes>
            0 -1 56 -4.8573010644759052e-06</internalNodes>
          <leafValues>
            4.3529412150382996e-01 -7.0414203405380249e-01</leafValues></_>
        <_>
          <internalNodes>
            0 -1 81 2.6471761520951986e-04</internalNodes>
          <leafValues>
            2.8180059790611267e-01 -7.6114511489868164e-01</leafValues></_>
        <_>
          <internalNodes>
            0 -1 33 5.3252219222486019e-03</internalNodes>
          <leafValues>
            -6.5945297479629517e-01 4.1808363795280457e-01</leafValues></_>
        <_>
          <internalNodes>
            0 -1 66 -5.2470199989329558e-06</internalNodes>
          <leafValues>
            5.6468898057937622e-01 -4.4574019312858582e-01</leafValues></_></weakClassifiers></_>
    <!-- stage 14 -->
    <_>
      <maxWeakCount>4</maxWeakCount>
      <stageThreshold>-5.9768342971801758e-01</stageThreshold>
      <weakClassifiers>
        <_>
          <internalNodes>
            0 -1 21 1.9735895330086350e-04</internalNodes>
          <leafValues>
            -7.0666664838790894e-01 2.3076923191547394e-01</leafValues></_>
        <_>
          <internalNodes>
            0 -1 36 4.0836975676938891e-04</internalNodes>
          <leafValues>
            3.2279789447784424e-01 -6.9557934999465942e-01</leafValues></_>
        <_>
          <internalNodes>
            0 -1 0 -1.6184683889150620e-02</internalNodes>
          <leafValues>
            5.9396094083786011e-01 -3.8840293884277344e-01</leafValues></_>
        <_>
          <internalNodes>
            0 -1 10 -1.5910266665741801e-04</internalNodes>
          <leafValues>
            -7.2683423757553101e-01 3.3150270581245422e-01</leafValues></_></weakClassifiers></_>
    <!-- stage 15 -->
    <_>
      <maxWeakCount>4</maxWeakCount>
      <stageThreshold>-9.1202235221862793e-01</stageThreshold>
      <weakClassifiers>
        <_>
          <internalNodes>
            0 -1 74 2.1635790471918881e-04</internalNodes>
          <leafValues>
            6.2937065958976746e-02 -8.1981980800628662e-01</leafValues></_>
        <_>
          <internalNodes>
            0 -1 15 -1.0869124904274940e-02</internalNodes>
          <leafValues>
            3.9170256257057190e-01 -5.8639609813690186e-01</leafValues></_>
        <_>
          <internalNodes>
            0 -1 57 8.1890443107113242e-04</internalNodes>
          <leafValues>
            2.6326137781143188e-01 -8.1903731822967529e-01</leafValues></_>
        <_>
          <internalNodes>
            0 -1 62 3.3343126415275037e-04</internalNodes>
          <leafValues>
            2.3093217611312866e-01 -9.6800845861434937e-01</leafValues></_></weakClassifiers></_>
    <!-- stage 16 -->
    <_>
      <maxWeakCount>6</maxWeakCount>
      <stageThreshold>-1.0040769577026367e+00</stageThreshold>
      <weakClassifiers>
        <_>
          <internalNodes>
            0 -1 47 -4.3250934686511755e-04</internalNodes>
          <leafValues>
            2.7659574151039124e-01 -6.7500001192092896e-01</leafValues></_>
        <_>
          <internalNodes>
            0 -1 29 -3.0641991645097733e-02</internalNodes>
          <leafValues>
            -7.5158166885375977e-01 3.1977754831314087e-01</leafValues></_>
        <_>
          <internalNodes>
            0 -1 58 1.6711579519324005e-04</internalNodes>
          <leafValues>
            -5.7979774475097656e-01 4.0684062242507935e-01</leafValues></_>
        <_>
          <internalNodes>
            0 -1 76 -1.2893296661786735e-04</internalNodes>
          <leafValues>
            -8.4517806768417358e-01 3.3090502023696899e-01</leafValues></_>
        <_>
          <internalNodes>
            0 -1 42 9.6739029686432332e-05</internalNodes>
          <leafValues>
            -5.2170872688293457e-01 4.5830819010734558e-01</leafValues></_>
        <_>
          <internalNodes>
            0 -1 39 -3.1839706934988499e-04</internalNodes>
          <leafValues>
            3.9340856671333313e-01 -6.4040410518646240e-01</leafValues></_></weakClassifiers></_>
    <!-- stage 17 -->
    <_>
      <maxWeakCount>5</maxWeakCount>
      <stageThreshold>-1.1189707517623901e+00</stageThreshold>
      <weakClassifiers>
        <_>
          <internalNodes>
            0 -1 17 -8.9655146002769470e-03</internalNodes>
          <leafValues>
            -9.7826087474822998e-01 4.9382716417312622e-02</leafValues></_>
        <_>
          <internalNodes>
            0 -1 60 -5.8059863746166229e-02</internalNodes>
          <leafValues>
            6.6100829839706421e-01 -4.6189871430397034e-01</leafValues></_>
        <_>
          <internalNodes>
            0 -1 78 -1.4197485870681703e-04</internalNodes>
          <leafValues>
            -8.9747357368469238e-01 2.7306067943572998e-01</leafValues></_>
        <_>
          <internalNodes>
            0 -1 72 1.1453899741172791e-01</internalNodes>
          <leafValues>
            -3.3677312731742859e-01 7.6980721950531006e-01</leafValues></_>
        <_>
          <internalNodes>
            0 -1 67 -2.0341546041890979e-04</internalNodes>
          <leafValues>
            5.2779197692871094e-01 -5.2108991146087646e-01</leafValues></_></weakClassifiers></_>
    <!-- stage 18 -->
    <_>
      <maxWeakCount>6</maxWeakCount>
      <stageThreshold>-9.3843412399291992e-01</stageThreshold>
      <weakClassifiers>
        <_>
          <internalNodes>
            0 -1 3 -1.5590205788612366e-02</internalNodes>
          <leafValues>
            8.8235294818878174e-01 -5.0909090042114258e-01</leafValues></_>
        <_>
          <internalNodes>
            0 -1 27 -6.2167294323444366e-02</internalNodes>
          <leafValues>
            8.4115350246429443e-01 -3.5639616847038269e-01</leafValues></_>
        <_>
          <internalNodes>
            0 -1 18 2.9928277945145965e-04</internalNodes>
          <leafValues>
            3.5399031639099121e-01 -8.0468428134918213e-01</leafValues></_>
        <_>
          <internalNodes>
            0 -1 7 7.0076144766062498e-04</internalNodes>
          <leafValues>
            4.0486413240432739e-01 -6.2325459718704224e-01</leafValues></_>
        <_>
          <internalNodes>
            0 -1 50 2.2525922395288944e-04</internalNodes>
          <leafValues>
            -3.6318612098693848e-01 7.9879796504974365e-01</leafValues></_>
        <_>
          <internalNodes>
            0 -1 63 1.0305348405381665e-04</internalNodes>
          <leafValues>
            5.5950337648391724e-01 -4.8571619391441345e-01</leafValues></_></weakClassifiers></_>
    <!-- stage 19 -->
    <_>
      <maxWeakCount>4</maxWeakCount>
      <stageThreshold>-3.5342514514923096e-01</stageThreshold>
      <weakClassifiers>
        <_>
          <internalNodes>
            0 -1 12 -1.4462801627814770e-03</internalNodes>
          <leafValues>
            -8.7096774578094482e-01 2.0000000298023224e-01</leafValues></_>
        <_>
          <internalNodes>
            0 -1 22 1.0232636705040932e-02</internalNodes>
          <leafValues>
            -4.3807756900787354e-01 8.5005372762680054e-01</leafValues></_>
        <_>
          <internalNodes>
            0 -1 11 -2.9163362341932952e-04</internalNodes>
          <leafValues>
            -7.4214118719100952e-01 4.6155458688735962e-01</leafValues></_>
        <_>
          <internalNodes>
            0 -1 46 -9.0906312689185143e-03</internalNodes>
          <leafValues>
            6.2679362297058105e-01 -4.9326306581497192e-01</leafValues></_></weakClassifiers></_></stages>
  <features>
    <_>
      <rects>
        <_>
          0 0 18 26 -1.</_>
        <_>
          6 0 6 26 3.</_></rects>
      <tilted>0</tilted></_>
    <_>
      <rects>
        <_>
          0 4 31 42 -1.</_>
        <_>
          0 25 31 21 2.</_></rects>
      <tilted>0</tilted></_>
    <_>
      <rects>
        <_>
          0 7 3 20 -1.</_>
        <_>
          0 17 3 10 2.</_></rects>
      <tilted>0</tilted></_>
    <_>
      <rects>
        <_>
          0 11 14 14 -1.</_>
        <_>
          0 11 7 7 2.</_>
        <_>
          7 18 7 7 2.</_></rects>
      <tilted>0</tilted></_>
    <_>
      <rects>
        <_>
          0 12 20 44 -1.</_>
        <_>
          10 12 10 44 2.</_></rects>
      <tilted>0</tilted></_>
    <_>
      <rects>
        <_>
          0 13 14 8 -1.</_>
        <_>
          0 13 7 4 2.</_>
        <_>
          7 17 7 4 2.</_></rects>
      <tilted>0</tilted></_>
    <_>
      <rects>
        <_>
          0 14 18 46 -1.</_>
        <_>
          9 14 9 46 2.</_></rects>
      <tilted>0</tilted></_>
    <_>
      <rects>
        <_>
          0 16 26 6 -1.</_>
        <_>
          0 18 26 2 3.</_></rects>
      <tilted>0</tilted></_>
    <_>
      <rects>
        <_>
          0 19 14 22 -1.</_>
        <_>
          7 19 7 22 2.</_></rects>
      <tilted>0</tilted></_>
    <_>
      <rects>
        <_>
          0 20 10 25 -1.</_>
        <_>
          5 20 5 25 2.</_></rects>
      <tilted>0</tilted></_>
    <_>
      <rects>
        <_>
          0 23 1 36 -1.</_>
        <_>
          0 41 1 18 2.</_></rects>
      <tilted>0</tilted></_>
    <_>
      <rects>
        <_>
          0 25 4 12 -1.</_>
        <_>
          2 25 2 12 2.</_></rects>
      <tilted>0</tilted></_>
    <_>
      <rects>
        <_>
          0 27 32 30 -1.</_>
        <_>
          0 42 32 15 2.</_></rects>
      <tilted>0</tilted></_>
    <_>
      <rects>
        <_>
          0 28 7 3 -1.</_>
        <_>
          0 29 7 1 3.</_></rects>
      <tilted>0</tilted></_>
    <_>
      <rects>
        <_>
          0 29 1 14 -1.</_>
        <_>
          0 36 1 7 2.</_></rects>
      <tilted>0</tilted></_>
    <_>
      <rects>
        <_>
          0 29 22 2 -1.</_>
        <_>
          11 29 11 2 2.</_></rects>
      <tilted>0</tilted></_>
    <_>
      <rects>
        <_>
          0 31 32 10 -1.</_>
        <_>
          0 36 32 5 2.</_></rects>
      <tilted>0</tilted></_>
    <_>
      <rects>
        <_>
          0 39 30 12 -1.</_>
        <_>
          0 43 30 4 3.</_></rects>
      <tilted>0</tilted></_>
    <_>
      <rects>
        <_>
          0 40 1 22 -1.</_>
        <_>
          0 51 1 11 2.</_></rects>
      <tilted>0</tilted></_>
    <_>
      <rects>
        <_>
          0 42 3 22 -1.</_>
        <_>
          0 53 3 11 2.</_></rects>
      <tilted>0</tilted></_>
    <_>
      <rects>
        <_>
          0 44 1 18 -1.</_>
        <_>
          0 53 1 9 2.</_></rects>
      <tilted>0</tilted></_>
    <_>
      <rects>
        <_>
          0 55 22 2 -1.</_>
        <_>
          0 55 11 1 2.</_>
        <_>
          11 56 11 1 2.</_></rects>
      <tilted>0</tilted></_>
    <_>
      <rects>
        <_>
          0 59 21 5 -1.</_>
        <_>
          7 59 7 5 3.</_></rects>
      <tilted>0</tilted></_>
    <_>
      <rects>
        <_>
          1 0 30 44 -1.</_>
        <_>
          11 0 10 44 3.</_></rects>
      <tilted>0</tilted></_>
    <_>
      <rects>
        <_>
          1 1 30 5 -1.</_>
        <_>
          11 1 10 5 3.</_></rects>
      <tilted>0</tilted></_>
    <_>
      <rects>
        <_>
          1 18 19 2 -1.</_>
        <_>
          1 19 19 1 2.</_></rects>
      <tilted>0</tilted></_>
    <_>
      <rects>
        <_>
          1 39 5 4 -1.</_>
        <_>
          1 41 5 2 2.</_></rects>
      <tilted>0</tilted></_>
    <_>
      <rects>
        <_>
          2 3 30 13 -1.</_>
        <_>
          17 3 15 13 2.</_></rects>
      <tilted>0</tilted></_>
    <_>
      <rects>
        <_>
          2 8 30 40 -1.</_>
        <_>
          12 8 10 40 3.</_></rects>
      <tilted>0</tilted></_>
    <_>
      <rects>
        <_>
          2 11 30 51 -1.</_>
        <_>
          2 28 30 17 3.</_></rects>
      <tilted>0</tilted></_>
    <_>
      <rects>
        <_>
          2 16 1 40 -1.</_>
        <_>
          2 36 1 20 2.</_></rects>
      <tilted>0</tilted></_>
    <_>
      <rects>
        <_>
          2 31 3 10 -1.</_>
        <_>
          3 31 1 10 3.</_></rects>
      <tilted>0</tilted></_>
    <_>
      <rects>
        <_>
          2 41 30 1 -1.</_>
        <_>
          12 41 10 1 3.</_></rects>
      <tilted>0</tilted></_>
    <_>
      <rects>
        <_>
          2 42 20 16 -1.</_>
        <_>
          2 50 20 8 2.</_></rects>
      <tilted>0</tilted></_>
    <_>
      <rects>
        <_>
          2 58 4 5 -1.</_>
        <_>
          4 58 2 5 2.</_></rects>
      <tilted>0</tilted></_>
    <_>
      <rects>
        <_>
          3 16 10 34 -1.</_>
        <_>
          8 16 5 34 2.</_></rects>
      <tilted>0</tilted></_>
    <_>
      <rects>
        <_>
          3 22 1 28 -1.</_>
        <_>
          3 36 1 14 2.</_></rects>
      <tilted>0</tilted></_>
    <_>
      <rects>
        <_>
          3 28 1 26 -1.</_>
        <_>
          3 41 1 13 2.</_></rects>
      <tilted>0</tilted></_>
    <_>
      <rects>
        <_>
          3 31 1 22 -1.</_>
        <_>
          3 42 1 11 2.</_></rects>
      <tilted>0</tilted></_>
    <_>
      <rects>
        <_>
          3 42 27 9 -1.</_>
        <_>
          3 45 27 3 3.</_></rects>
      <tilted>0</tilted></_>
    <_>
      <rects>
        <_>
          3 47 29 3 -1.</_>
        <_>
          3 48 29 1 3.</_></rects>
      <tilted>0</tilted></_>
    <_>
      <rects>
        <_>
          3 51 25 2 -1.</_>
        <_>
          3 52 25 1 2.</_></rects>
      <tilted>0</tilted></_>
    <_>
      <rects>
        <_>
          3 55 17 2 -1.</_>
        <_>
          3 56 17 1 2.</_></rects>
      <tilted>0</tilted></_>
    <_>
      <rects>
        <_>
          4 26 22 2 -1.</_>
        <_>
          4 27 22 1 2.</_></rects>
      <tilted>0</tilted></_>
    <_>
      <rects>
        <_>
          4 45 1 16 -1.</_>
        <_>
          4 53 1 8 2.</_></rects>
      <tilted>0</tilted></_>
    <_>
      <rects>
        <_>
          4 51 16 12 -1.</_>
        <_>
          4 51 8 6 2.</_>
        <_>
          12 57 8 6 2.</_></rects>
      <tilted>0</tilted></_>
    <_>
      <rects>
        <_>
          5 16 27 2 -1.</_>
        <_>
          14 16 9 2 3.</_></rects>
      <tilted>0</tilted></_>
    <_>
      <rects>
        <_>
          5 26 14 6 -1.</_>
        <_>
          5 26 7 3 2.</_>
        <_>
          12 29 7 3 2.</_></rects>
      <tilted>0</tilted></_>
    <_>
      <rects>
        <_>
          5 29 24 21 -1.</_>
        <_>
          13 29 8 21 3.</_></rects>
      <tilted>0</tilted></_>
    <_>
      <rects>
        <_>
          5 36 27 1 -1.</_>
        <_>
          14 36 9 1 3.</_></rects>
      <tilted>0</tilted></_>
    <_>
      <rects>
        <_>
          6 34 12 2 -1.</_>
        <_>
          6 35 12 1 2.</_></rects>
      <tilted>0</tilted></_>
    <_>
      <rects>
        <_>
          8 56 20 2 -1.</_>
        <_>
          8 57 20 1 2.</_></rects>
      <tilted>0</tilted></_>
    <_>
      <rects>
        <_>
          9 36 13 24 -1.</_>
        <_>
          9 44 13 8 3.</_></rects>
      <tilted>0</tilted></_>
    <_>
      <rects>
        <_>
          9 47 23 2 -1.</_>
        <_>
          9 48 23 1 2.</_></rects>
      <tilted>0</tilted></_>
    <_>
      <rects>
        <_>
          10 41 14 9 -1.</_>
        <_>
          10 44 14 3 3.</_></rects>
      <tilted>0</tilted></_>
    <_>
      <rects>
        <_>
          10 47 11 8 -1.</_>
        <_>
          10 51 11 4 2.</_></rects>
      <tilted>0</tilted></_>
    <_>
      <rects>
        <_>
          11 0 11 4 -1.</_>
        <_>
          11 2 11 2 2.</_></rects>
      <tilted>0</tilted></_>
    <_>
      <rects>
        <_>
          11 7 3 28 -1.</_>
        <_>
          12 7 1 28 3.</_></rects>
      <tilted>0</tilted></_>
    <_>
      <rects>
        <_>
          11 50 17 2 -1.</_>
        <_>
          11 51 17 1 2.</_></rects>
      <tilted>0</tilted></_>
    <_>
      <rects>
        <_>
          11 53 11 4 -1.</_>
        <_>
          11 55 11 2 2.</_></rects>
      <tilted>0</tilted></_>
    <_>
      <rects>
        <_>
          12 37 15 25 -1.</_>
        <_>
          17 37 5 25 3.</_></rects>
      <tilted>0</tilted></_>
    <_>
      <rects>
        <_>
          14 52 11 8 -1.</_>
        <_>
          14 56 11 4 2.</_></rects>
      <tilted>0</tilted></_>
    <_>
      <rects>
        <_>
          15 18 3 6 -1.</_>
        <_>
          16 18 1 6 3.</_></rects>
      <tilted>0</tilted></_>
    <_>
      <rects>
        <_>
          15 46 1 8 -1.</_>
        <_>
          15 50 1 4 2.</_></rects>
      <tilted>0</tilted></_>
    <_>
      <rects>
        <_>
          16 2 16 38 -1.</_>
        <_>
          16 2 8 19 2.</_>
        <_>
          24 21 8 19 2.</_></rects>
      <tilted>0</tilted></_>
    <_>
      <rects>
        <_>
          18 20 14 31 -1.</_>
        <_>
          25 20 7 31 2.</_></rects>
      <tilted>0</tilted></_>
    <_>
      <rects>
        <_>
          19 3 2 4 -1.</_>
        <_>
          19 5 2 2 2.</_></rects>
      <tilted>0</tilted></_>
    <_>
      <rects>
        <_>
          19 4 6 59 -1.</_>
        <_>
          21 4 2 59 3.</_></rects>
      <tilted>0</tilted></_>
    <_>
      <rects>
        <_>
          21 1 10 43 -1.</_>
        <_>
          26 1 5 43 2.</_></rects>
      <tilted>0</tilted></_>
    <_>
      <rects>
        <_>
          22 0 8 56 -1.</_>
        <_>
          22 0 4 28 2.</_>
        <_>
          26 28 4 28 2.</_></rects>
      <tilted>0</tilted></_>
    <_>
      <rects>
        <_>
          22 2 10 39 -1.</_>
        <_>
          27 2 5 39 2.</_></rects>
      <tilted>0</tilted></_>
    <_>
      <rects>
        <_>
          22 37 8 1 -1.</_>
        <_>
          26 37 4 1 2.</_></rects>
      <tilted>0</tilted></_>
    <_>
      <rects>
        <_>
          24 3 8 50 -1.</_>
        <_>
          24 28 8 25 2.</_></rects>
      <tilted>0</tilted></_>
    <_>
      <rects>
        <_>
          24 4 6 30 -1.</_>
        <_>
          24 4 3 15 2.</_>
        <_>
          27 19 3 15 2.</_></rects>
      <tilted>0</tilted></_>
    <_>
      <rects>
        <_>
          28 36 4 4 -1.</_>
        <_>
          30 36 2 4 2.</_></rects>
      <tilted>0</tilted></_>
    <_>
      <rects>
        <_>
          29 39 2 3 -1.</_>
        <_>
          30 39 1 3 2.</_></rects>
      <tilted>0</tilted></_>
    <_>
      <rects>
        <_>
          29 39 2 20 -1.</_>
        <_>
          29 39 1 10 2.</_>
        <_>
          30 49 1 10 2.</_></rects>
      <tilted>0</tilted></_>
    <_>
      <rects>
        <_>
          30 23 2 32 -1.</_>
        <_>
          30 39 2 16 2.</_></rects>
      <tilted>0</tilted></_>
    <_>
      <rects>
        <_>
          30 26 1 26 -1.</_>
        <_>
          30 39 1 13 2.</_></rects>
      <tilted>0</tilted></_>
    <_>
      <rects>
        <_>
          30 40 1 18 -1.</_>
        <_>
          30 49 1 9 2.</_></rects>
      <tilted>0</tilted></_>
    <_>
      <rects>
        <_>
          31 27 1 12 -1.</_>
        <_>
          31 33 1 6 2.</_></rects>
      <tilted>0</tilted></_>
    <_>
      <rects>
        <_>
          31 28 1 32 -1.</_>
        <_>
          31 44 1 16 2.</_></rects>
      <tilted>0</tilted></_>
    <_>
      <rects>
        <_>
          31 40 1 18 -1.</_>
        <_>
          31 49 1 9 2.</_></rects>
      <tilted>0</tilted></_>
    <_>
      <rects>
        <_>
          31 44 1 18 -1.</_>
        <_>
          31 53 1 9 2.</_></rects>
      <tilted>0</tilted></_>
    <_>
      <rects>
        <_>
          31 45 1 18 -1.</_>
        <_>
          31 54 1 9 2.</_></rects>
      <tilted>0</tilted></_>
    <_>
      <rects>
        <_>
          31 53 1 6 -1.</_>
        <_>
          31 56 1 3 2.</_></rects>
      <tilted>0</tilted></_></features></cascade>
</opencv_storage>
