<?xml version="1.0"?>
<opencv_storage>
<cascade>
  <stageType>BOOST</stageType>
  <featureType>HAAR</featureType>
  <height>24</height>
  <width>36</width>
  <stageParams>
    <boostType>GAB</boostType>
    <minHitRate>9.9500000476837158e-01</minHitRate>
    <maxFalseAlarm>5.0000000000000000e-01</maxFalseAlarm>
    <weightTrimRate>9.4999998807907104e-01</weightTrimRate>
    <maxDepth>1</maxDepth>
    <maxWeakCount>100</maxWeakCount></stageParams>
  <featureParams>
    <maxCatCount>0</maxCatCount>
    <featSize>1</featSize>
    <mode>BASIC</mode></featureParams>
  <stageNum>15</stageNum>
  <stages>
    <!-- stage 0 -->
    <_>
      <maxWeakCount>5</maxWeakCount>
      <stageThreshold>-9.4383782148361206e-01</stageThreshold>
      <weakClassifiers>
        <_>
          <internalNodes>
            0 -1 19 6.0603385791182518e-03</internalNodes>
          <leafValues>
            6.5151512622833252e-01 -8.1250000000000000e-01</leafValues></_>
        <_>
          <internalNodes>
            0 -1 5 -5.7157948613166809e-03</internalNodes>
          <leafValues>
            6.8849271535873413e-01 -6.1905980110168457e-01</leafValues></_>
        <_>
          <internalNodes>
            0 -1 66 -2.5890537071973085e-03</internalNodes>
          <leafValues>
            -1. 4.6014973521232605e-01</leafValues></_>
        <_>
          <internalNodes>
            0 -1 2 -2.0845582708716393e-02</internalNodes>
          <leafValues>
            9.5943975448608398e-01 -4.8989361524581909e-01</leafValues></_>
        <_>
          <internalNodes>
            0 -1 67 -6.2719883862882853e-04</internalNodes>
          <leafValues>
            -9.6396923065185547e-01 5.1746588945388794e-01</leafValues></_></weakClassifiers></_>
    <!-- stage 1 -->
    <_>
      <maxWeakCount>4</maxWeakCount>
      <stageThreshold>-4.5297661423683167e-01</stageThreshold>
      <weakClassifiers>
        <_>
          <internalNodes>
            0 -1 4 -6.8587344139814377e-03</internalNodes>
          <leafValues>
            7.5999999046325684e-01 -6.2500000000000000e-01</leafValues></_>
        <_>
          <internalNodes>
            0 -1 12 -2.6786711066961288e-02</internalNodes>
          <leafValues>
            7.7817523479461670e-01 -4.7612240910530090e-01</leafValues></_>
        <_>
          <internalNodes>
            0 -1 44 -1.5343725681304932e-03</internalNodes>
          <leafValues>
            -8.2861441373825073e-01 3.9788424968719482e-01</leafValues></_>
        <_>
          <internalNodes>
            0 -1 76 1.0139625519514084e-03</internalNodes>
          <leafValues>
            2.5026151537895203e-01 -9.7532105445861816e-01</leafValues></_></weakClassifiers></_>
    <!-- stage 2 -->
    <_>
      <maxWeakCount>3</maxWeakCount>
      <stageThreshold>-4.3934407830238342e-01</stageThreshold>
      <weakClassifiers>
        <_>
          <internalNodes>
            0 -1 8 1.6330222133547068e-03</internalNodes>
          <leafValues>
            -6.8205130100250244e-01 9.1752576828002930e-01</leafValues></_>
        <_>
          <internalNodes>
            0 -1 87 7.5828397712029982e-06</internalNodes>
          <leafValues>
            -5.9796220064163208e-01 8.8735014200210571e-01</leafValues></_>
        <_>
          <internalNodes>
            0 -1 45 7.2169450504588895e-06</internalNodes>
          <leafValues>
            -6.1923533678054810e-01 8.4066939353942871e-01</leafValues></_></weakClassifiers></_>
    <!-- stage 3 -->
    <_>
      <maxWeakCount>3</maxWeakCount>
      <stageThreshold>-4.9192672967910767e-01</stageThreshold>
      <weakClassifiers>
        <_>
          <internalNodes>
            0 -1 85 1.0019403416663408e-03</internalNodes>
          <leafValues>
            -6.2886595726013184e-01 7.9591834545135498e-01</leafValues></_>
        <_>
          <internalNodes>
            0 -1 46 1.4762116734345909e-05</internalNodes>
          <leafValues>
            -5.1999914646148682e-01 8.2107281684875488e-01</leafValues></_>
        <_>
          <internalNodes>
            0 -1 88 7.5828397712029982e-06</internalNodes>
          <leafValues>
            -5.9356451034545898e-01 6.5693837404251099e-01</leafValues></_></weakClassifiers></_>
    <!-- stage 4 -->
    <_>
      <maxWeakCount>6</maxWeakCount>
      <stageThreshold>-1.0722210407257080e+00</stageThreshold>
      <weakClassifiers>
        <_>
          <internalNodes>
            0 -1 30 4.9275271594524384e-03</internalNodes>
          <leafValues>
            -4.8113209009170532e-01 7.2500002384185791e-01</leafValues></_>
        <_>
          <internalNodes>
            0 -1 34 2.5808053091168404e-02</internalNodes>
          <leafValues>
            4.3694746494293213e-01 -6.9209069013595581e-01</leafValues></_>
        <_>
          <internalNodes>
            0 -1 23 -2.5926481932401657e-02</internalNodes>
          <leafValues>
            6.4392781257629395e-01 -3.9964574575424194e-01</leafValues></_>
        <_>
          <internalNodes>
            0 -1 33 1.6743289306759834e-03</internalNodes>
          <leafValues>
            -5.3842639923095703e-01 4.5659908652305603e-01</leafValues></_>
        <_>
          <internalNodes>
            0 -1 53 4.4658099068328738e-04</internalNodes>
          <leafValues>
            3.4100088477134705e-01 -7.9167246818542480e-01</leafValues></_>
        <_>
          <internalNodes>
            0 -1 83 -3.4200478694401681e-04</internalNodes>
          <leafValues>
            6.9807296991348267e-01 -3.9763531088829041e-01</leafValues></_></weakClassifiers></_>
    <!-- stage 5 -->
    <_>
      <maxWeakCount>4</maxWeakCount>
      <stageThreshold>-7.7725964784622192e-01</stageThreshold>
      <weakClassifiers>
        <_>
          <internalNodes>
            0 -1 6 1.4535656198859215e-02</internalNodes>
          <leafValues>
            -5.2830189466476440e-01 8.5000002384185791e-01</leafValues></_>
        <_>
          <internalNodes>
            0 -1 14 -4.5237086713314056e-02</internalNodes>
          <leafValues>
            6.5251374244689941e-01 -3.9295235276222229e-01</leafValues></_>
        <_>
          <internalNodes>
            0 -1 3 3.6334036849439144e-03</internalNodes>
          <leafValues>
            -3.2399427890777588e-01 9.4624000787734985e-01</leafValues></_>
        <_>
          <internalNodes>
            0 -1 47 -8.8925729505717754e-04</internalNodes>
          <leafValues>
            -5.7747721672058105e-01 5.2888417243957520e-01</leafValues></_></weakClassifiers></_>
    <!-- stage 6 -->
    <_>
      <maxWeakCount>6</maxWeakCount>
      <stageThreshold>-6.5125370025634766e-01</stageThreshold>
      <weakClassifiers>
        <_>
          <internalNodes>
            0 -1 62 -9.6099674701690674e-03</internalNodes>
          <leafValues>
            8.4415584802627563e-01 -5.0697672367095947e-01</leafValues></_>
        <_>
          <internalNodes>
            0 -1 27 7.8734736889600754e-03</internalNodes>
          <leafValues>
            -3.6722227931022644e-01 7.1495234966278076e-01</leafValues></_>
        <_>
          <internalNodes>
            0 -1 41 -3.9595382986590266e-04</internalNodes>
          <leafValues>
            -9.5575004816055298e-01 2.2787880897521973e-01</leafValues></_>
        <_>
          <internalNodes>
            0 -1 79 7.8864432871341705e-03</internalNodes>
          <leafValues>
            -2.9159888625144958e-01 7.3545140027999878e-01</leafValues></_>
        <_>
          <internalNodes>
            0 -1 43 -1.9191039726138115e-02</internalNodes>
          <leafValues>
            9.0739327669143677e-01 -2.4492645263671875e-01</leafValues></_>
        <_>
          <internalNodes>
            0 -1 78 -1.0319983586668968e-02</internalNodes>
          <leafValues>
            5.3159189224243164e-01 -4.6809354424476624e-01</leafValues></_></weakClassifiers></_>
    <!-- stage 7 -->
    <_>
      <maxWeakCount>6</maxWeakCount>
      <stageThreshold>-1.0015337467193604e+00</stageThreshold>
      <weakClassifiers>
        <_>
          <internalNodes>
            0 -1 63 -8.9094974100589752e-03</internalNodes>
          <leafValues>
            6.9230771064758301e-01 -5.3233832120895386e-01</leafValues></_>
        <_>
          <internalNodes>
            0 -1 24 -1.7662929603829980e-03</internalNodes>
          <leafValues>
            4.6148064732551575e-01 -5.8943456411361694e-01</leafValues></_>
        <_>
          <internalNodes>
            0 -1 10 -1.6208792658289894e-05</internalNodes>
          <leafValues>
            4.2773869633674622e-01 -6.0935723781585693e-01</leafValues></_>
        <_>
          <internalNodes>
            0 -1 73 -9.2481268438859843e-06</internalNodes>
          <leafValues>
            5.3705197572708130e-01 -4.8296624422073364e-01</leafValues></_>
        <_>
          <internalNodes>
            0 -1 70 4.0388673543930054e-02</internalNodes>
          <leafValues>
            -3.1054756045341492e-01 7.5440156459808350e-01</leafValues></_>
        <_>
          <internalNodes>
            0 -1 9 9.7825024276971817e-03</internalNodes>
          <leafValues>
            -4.9086144566535950e-01 5.0309187173843384e-01</leafValues></_></weakClassifiers></_>
    <!-- stage 8 -->
    <_>
      <maxWeakCount>7</maxWeakCount>
      <stageThreshold>-4.6901625394821167e-01</stageThreshold>
      <weakClassifiers>
        <_>
          <internalNodes>
            0 -1 18 -1.8746413290500641e-02</internalNodes>
          <leafValues>
            5.1351350545883179e-01 -5.5801105499267578e-01</leafValues></_>
        <_>
          <internalNodes>
            0 -1 56 -7.9001352190971375e-02</internalNodes>
          <leafValues>
            9.4418805837631226e-01 -2.1663166582584381e-01</leafValues></_>
        <_>
          <internalNodes>
            0 -1 75 2.4014934897422791e-02</internalNodes>
          <leafValues>
            -3.6751076579093933e-01 6.0235476493835449e-01</leafValues></_>
        <_>
          <internalNodes>
            0 -1 17 -2.9663471505045891e-03</internalNodes>
          <leafValues>
            5.9840893745422363e-01 -3.0429351329803467e-01</leafValues></_>
        <_>
          <internalNodes>
            0 -1 29 1.0383750777691603e-03</internalNodes>
          <leafValues>
            -3.3050578832626343e-01 6.5652102231979370e-01</leafValues></_>
        <_>
          <internalNodes>
            0 -1 86 -1.4449427835643291e-03</internalNodes>
          <leafValues>
            7.0016223192214966e-01 -3.1177470088005066e-01</leafValues></_>
        <_>
          <internalNodes>
            0 -1 61 7.2332355193793774e-04</internalNodes>
          <leafValues>
            -2.7001801133155823e-01 7.5935876369476318e-01</leafValues></_></weakClassifiers></_>
    <!-- stage 9 -->
    <_>
      <maxWeakCount>8</maxWeakCount>
      <stageThreshold>-9.6934729814529419e-01</stageThreshold>
      <weakClassifiers>
        <_>
          <internalNodes>
            0 -1 80 3.9589140564203262e-02</internalNodes>
          <leafValues>
            -3.8983049988746643e-01 8.5714286565780640e-01</leafValues></_>
        <_>
          <internalNodes>
            0 -1 62 -8.9460331946611404e-03</internalNodes>
          <leafValues>
            5.8124315738677979e-01 -2.8250947594642639e-01</leafValues></_>
        <_>
          <internalNodes>
            0 -1 50 4.0144723607227206e-04</internalNodes>
          <leafValues>
            2.7683350443840027e-01 -6.2709426879882813e-01</leafValues></_>
        <_>
          <internalNodes>
            0 -1 58 -1.6361330635845661e-03</internalNodes>
          <leafValues>
            -7.3751223087310791e-01 2.2074705362319946e-01</leafValues></_>
        <_>
          <internalNodes>
            0 -1 74 1.8844263104256243e-04</internalNodes>
          <leafValues>
            -4.3323460221290588e-01 3.7502497434616089e-01</leafValues></_>
        <_>
          <internalNodes>
            0 -1 36 7.6544668991118670e-04</internalNodes>
          <leafValues>
            3.2695445418357849e-01 -5.2855217456817627e-01</leafValues></_>
        <_>
          <internalNodes>
            0 -1 7 5.0660133361816406e-02</internalNodes>
          <leafValues>
            -2.5244870781898499e-01 9.5248937606811523e-01</leafValues></_>
        <_>
          <internalNodes>
            0 -1 60 4.5072715147398412e-04</internalNodes>
          <leafValues>
            4.6806877851486206e-01 -4.2917323112487793e-01</leafValues></_></weakClassifiers></_>
    <!-- stage 10 -->
    <_>
      <maxWeakCount>6</maxWeakCount>
      <stageThreshold>-1.3109560012817383e+00</stageThreshold>
      <weakClassifiers>
        <_>
          <internalNodes>
            0 -1 1 -6.1717727221548557e-03</internalNodes>
          <leafValues>
            5.8974361419677734e-01 -4.2056074738502502e-01</leafValues></_>
        <_>
          <internalNodes>
            0 -1 16 -4.4571645557880402e-03</internalNodes>
          <leafValues>
            6.8396973609924316e-01 -2.6845952868461609e-01</leafValues></_>
        <_>
          <internalNodes>
            0 -1 59 9.1601650638040155e-06</internalNodes>
          <leafValues>
            -4.1143044829368591e-01 4.1983002424240112e-01</leafValues></_>
        <_>
          <internalNodes>
            0 -1 65 -2.8909696266055107e-04</internalNodes>
          <leafValues>
            -6.5064716339111328e-01 2.6678863167762756e-01</leafValues></_>
        <_>
          <internalNodes>
            0 -1 54 -6.6755455918610096e-03</internalNodes>
          <leafValues>
            6.5683323144912720e-01 -2.6099103689193726e-01</leafValues></_>
        <_>
          <internalNodes>
            0 -1 15 1.5140153467655182e-02</internalNodes>
          <leafValues>
            -3.0917137861251831e-01 6.0695648193359375e-01</leafValues></_></weakClassifiers></_>
    <!-- stage 11 -->
    <_>
      <maxWeakCount>9</maxWeakCount>
      <stageThreshold>-8.3870238065719604e-01</stageThreshold>
      <weakClassifiers>
        <_>
          <internalNodes>
            0 -1 72 2.0210100337862968e-02</internalNodes>
          <leafValues>
            -4.4162437319755554e-01 4.5263159275054932e-01</leafValues></_>
        <_>
          <internalNodes>
            0 -1 81 1.4435151591897011e-02</internalNodes>
          <leafValues>
            -3.8896337151527405e-01 4.6876540780067444e-01</leafValues></_>
        <_>
          <internalNodes>
            0 -1 69 -1.5930132940411568e-03</internalNodes>
          <leafValues>
            -7.5113940238952637e-01 2.1413895487785339e-01</leafValues></_>
        <_>
          <internalNodes>
            0 -1 22 1.3886429951526225e-04</internalNodes>
          <leafValues>
            2.2631464898586273e-01 -7.0584160089492798e-01</leafValues></_>
        <_>
          <internalNodes>
            0 -1 0 -5.1653172704391181e-05</internalNodes>
          <leafValues>
            -5.3107756376266479e-01 3.1240159273147583e-01</leafValues></_>
        <_>
          <internalNodes>
            0 -1 13 -1.3841644395142794e-03</internalNodes>
          <leafValues>
            7.1687293052673340e-01 -2.5148761272430420e-01</leafValues></_>
        <_>
          <internalNodes>
            0 -1 39 1.7372082220390439e-04</internalNodes>
          <leafValues>
            2.3871457576751709e-01 -7.3487991094589233e-01</leafValues></_>
        <_>
          <internalNodes>
            0 -1 55 4.7390431165695190e-02</internalNodes>
          <leafValues>
            -2.2119522094726563e-01 6.2726110219955444e-01</leafValues></_>
        <_>
          <internalNodes>
            0 -1 25 6.8487264798022807e-05</internalNodes>
          <leafValues>
            -3.7724897265434265e-01 4.0515470504760742e-01</leafValues></_></weakClassifiers></_>
    <!-- stage 12 -->
    <_>
      <maxWeakCount>8</maxWeakCount>
      <stageThreshold>-1.0967057943344116e+00</stageThreshold>
      <weakClassifiers>
        <_>
          <internalNodes>
            0 -1 71 2.4953583255410194e-02</internalNodes>
          <leafValues>
            -3.7719297409057617e-01 6.5625000000000000e-01</leafValues></_>
        <_>
          <internalNodes>
            0 -1 42 -1.0374108701944351e-01</internalNodes>
          <leafValues>
            8.2674849033355713e-01 -2.1351172029972076e-01</leafValues></_>
        <_>
          <internalNodes>
            0 -1 48 -1.5122286276891828e-04</internalNodes>
          <leafValues>
            -8.4421658515930176e-01 2.3301856219768524e-01</leafValues></_>
        <_>
          <internalNodes>
            0 -1 77 -5.3238087275531143e-05</internalNodes>
          <leafValues>
            -5.4498201608657837e-01 3.0573707818984985e-01</leafValues></_>
        <_>
          <internalNodes>
            0 -1 11 1.3287400361150503e-03</internalNodes>
          <leafValues>
            -3.1306213140487671e-01 5.3162872791290283e-01</leafValues></_>
        <_>
          <internalNodes>
            0 -1 52 -2.2420132881961763e-04</internalNodes>
          <leafValues>
            -9.2892712354660034e-01 1.4091794192790985e-01</leafValues></_>
        <_>
          <internalNodes>
            0 -1 40 1.0768847278086469e-04</internalNodes>
          <leafValues>
            -3.4535869956016541e-01 4.2860016226768494e-01</leafValues></_>
        <_>
          <internalNodes>
            0 -1 37 -7.5998937245458364e-04</internalNodes>
          <leafValues>
            3.2346528768539429e-01 -5.9251976013183594e-01</leafValues></_></weakClassifiers></_>
    <!-- stage 13 -->
    <_>
      <maxWeakCount>8</maxWeakCount>
      <stageThreshold>-8.5558515787124634e-01</stageThreshold>
      <weakClassifiers>
        <_>
          <internalNodes>
            0 -1 26 2.1565802395343781e-02</internalNodes>
          <leafValues>
            -4.6153846383094788e-01 3.6363637447357178e-01</leafValues></_>
        <_>
          <internalNodes>
            0 -1 57 -3.7833503447473049e-03</internalNodes>
          <leafValues>
            4.8609337210655212e-01 -3.0649158358573914e-01</leafValues></_>
        <_>
          <internalNodes>
            0 -1 31 -6.6020530648529530e-03</internalNodes>
          <leafValues>
            -5.5943399667739868e-01 2.7492451667785645e-01</leafValues></_>
        <_>
          <internalNodes>
            0 -1 82 -5.8318134397268295e-03</internalNodes>
          <leafValues>
            6.7222911119461060e-01 -2.1230448782444000e-01</leafValues></_>
        <_>
          <internalNodes>
            0 -1 49 1.1828516144305468e-03</internalNodes>
          <leafValues>
            2.0568567514419556e-01 -8.5520648956298828e-01</leafValues></_>
        <_>
          <internalNodes>
            0 -1 32 6.5783008933067322e-02</internalNodes>
          <leafValues>
            -2.1457926928997040e-01 8.6340701580047607e-01</leafValues></_>
        <_>
          <internalNodes>
            0 -1 38 -1.4122924767434597e-04</internalNodes>
          <leafValues>
            -5.8247333765029907e-01 2.7124610543251038e-01</leafValues></_>
        <_>
          <internalNodes>
            0 -1 51 -2.9201188590377569e-04</internalNodes>
          <leafValues>
            4.5130333304405212e-01 -3.8398301601409912e-01</leafValues></_></weakClassifiers></_>
    <!-- stage 14 -->
    <_>
      <maxWeakCount>7</maxWeakCount>
      <stageThreshold>-9.6450877189636230e-01</stageThreshold>
      <weakClassifiers>
        <_>
          <internalNodes>
            0 -1 28 6.5861465409398079e-03</internalNodes>
          <leafValues>
            -4.1999998688697815e-01 4.3478259444236755e-01</leafValues></_>
        <_>
          <internalNodes>
            0 -1 20 8.2343199755996466e-04</internalNodes>
          <leafValues>
            2.6787820458412170e-01 -5.8592206239700317e-01</leafValues></_>
        <_>
          <internalNodes>
            0 -1 21 -5.0557875074446201e-03</internalNodes>
          <leafValues>
            4.7210630774497986e-01 -2.9833748936653137e-01</leafValues></_>
        <_>
          <internalNodes>
            0 -1 35 -2.9100707615725696e-04</internalNodes>
          <leafValues>
            -7.5275629758834839e-01 2.0940202474594116e-01</leafValues></_>
        <_>
          <internalNodes>
            0 -1 64 -6.9279666058719158e-04</internalNodes>
          <leafValues>
            -6.8235009908676147e-01 2.1667425334453583e-01</leafValues></_>
        <_>
          <internalNodes>
            0 -1 68 2.5403722247574478e-05</internalNodes>
          <leafValues>
            -3.9918810129165649e-01 3.8448929786682129e-01</leafValues></_>
        <_>
          <internalNodes>
            0 -1 84 2.5628207367844880e-04</internalNodes>
          <leafValues>
            -4.5758122205734253e-01 3.3624136447906494e-01</leafValues></_></weakClassifiers></_></stages>
  <features>
    <_>
      <rects>
        <_>
          0 0 9 1 -1.</_>
        <_>
          3 0 3 1 3.</_></rects>
      <tilted>0</tilted></_>
    <_>
      <rects>
        <_>
          0 0 3 4 -1.</_>
        <_>
          0 2 3 2 2.</_></rects>
      <tilted>0</tilted></_>
    <_>
      <rects>
        <_>
          0 0 6 24 -1.</_>
        <_>
          3 0 3 24 2.</_></rects>
      <tilted>0</tilted></_>
    <_>
      <rects>
        <_>
          0 0 14 2 -1.</_>
        <_>
          0 0 7 1 2.</_>
        <_>
          7 1 7 1 2.</_></rects>
      <tilted>0</tilted></_>
    <_>
      <rects>
        <_>
          0 0 16 1 -1.</_>
        <_>
          8 0 8 1 2.</_></rects>
      <tilted>0</tilted></_>
    <_>
      <rects>
        <_>
          0 0 18 1 -1.</_>
        <_>
          9 0 9 1 2.</_></rects>
      <tilted>0</tilted></_>
    <_>
      <rects>
        <_>
          0 0 18 4 -1.</_>
        <_>
          0 0 9 2 2.</_>
        <_>
          9 2 9 2 2.</_></rects>
      <tilted>0</tilted></_>
    <_>
      <rects>
        <_>
          0 0 11 9 -1.</_>
        <_>
          0 3 11 3 3.</_></rects>
      <tilted>0</tilted></_>
    <_>
      <rects>
        <_>
          0 0 26 2 -1.</_>
        <_>
          0 0 13 1 2.</_>
        <_>
          13 1 13 1 2.</_></rects>
      <tilted>0</tilted></_>
    <_>
      <rects>
        <_>
          0 0 28 10 -1.</_>
        <_>
          0 0 14 5 2.</_>
        <_>
          14 5 14 5 2.</_></rects>
      <tilted>0</tilted></_>
    <_>
      <rects>
        <_>
          0 1 2 8 -1.</_>
        <_>
          1 1 1 8 2.</_></rects>
      <tilted>0</tilted></_>
    <_>
      <rects>
        <_>
          0 1 4 6 -1.</_>
        <_>
          0 1 2 3 2.</_>
        <_>
          2 4 2 3 2.</_></rects>
      <tilted>0</tilted></_>
    <_>
      <rects>
        <_>
          0 1 8 22 -1.</_>
        <_>
          4 1 4 22 2.</_></rects>
      <tilted>0</tilted></_>
    <_>
      <rects>
        <_>
          0 6 3 3 -1.</_>
        <_>
          0 7 3 1 3.</_></rects>
      <tilted>0</tilted></_>
    <_>
      <rects>
        <_>
          0 8 18 16 -1.</_>
        <_>
          9 8 9 16 2.</_></rects>
      <tilted>0</tilted></_>
    <_>
      <rects>
        <_>
          0 9 16 9 -1.</_>
        <_>
          0 12 16 3 3.</_></rects>
      <tilted>0</tilted></_>
    <_>
      <rects>
        <_>
          0 10 6 10 -1.</_>
        <_>
          0 10 3 5 2.</_>
        <_>
          3 15 3 5 2.</_></rects>
      <tilted>0</tilted></_>
    <_>
      <rects>
        <_>
          0 11 6 13 -1.</_>
        <_>
          2 11 2 13 3.</_></rects>
      <tilted>0</tilted></_>
    <_>
      <rects>
        <_>
          0 11 12 13 -1.</_>
        <_>
          4 11 4 13 3.</_></rects>
      <tilted>0</tilted></_>
    <_>
      <rects>
        <_>
          0 20 28 3 -1.</_>
        <_>
          14 20 14 3 2.</_></rects>
      <tilted>0</tilted></_>
    <_>
      <rects>
        <_>
          0 21 28 1 -1.</_>
        <_>
          14 21 14 1 2.</_></rects>
      <tilted>0</tilted></_>
    <_>
      <rects>
        <_>
          0 23 21 1 -1.</_>
        <_>
          7 23 7 1 3.</_></rects>
      <tilted>0</tilted></_>
    <_>
      <rects>
        <_>
          1 0 4 1 -1.</_>
        <_>
          3 0 2 1 2.</_></rects>
      <tilted>0</tilted></_>
    <_>
      <rects>
        <_>
          1 0 12 18 -1.</_>
        <_>
          5 0 4 18 3.</_></rects>
      <tilted>0</tilted></_>
    <_>
      <rects>
        <_>
          1 0 14 1 -1.</_>
        <_>
          8 0 7 1 2.</_></rects>
      <tilted>0</tilted></_>
    <_>
      <rects>
        <_>
          1 5 2 3 -1.</_>
        <_>
          1 6 2 1 3.</_></rects>
      <tilted>0</tilted></_>
    <_>
      <rects>
        <_>
          1 5 6 18 -1.</_>
        <_>
          1 11 6 6 3.</_></rects>
      <tilted>0</tilted></_>
    <_>
      <rects>
        <_>
          2 0 12 4 -1.</_>
        <_>
          2 0 6 2 2.</_>
        <_>
          8 2 6 2 2.</_></rects>
      <tilted>0</tilted></_>
    <_>
      <rects>
        <_>
          3 0 16 2 -1.</_>
        <_>
          3 0 8 1 2.</_>
        <_>
          11 1 8 1 2.</_></rects>
      <tilted>0</tilted></_>
    <_>
      <rects>
        <_>
          4 0 9 1 -1.</_>
        <_>
          7 0 3 1 3.</_></rects>
      <tilted>0</tilted></_>
    <_>
      <rects>
        <_>
          4 0 14 2 -1.</_>
        <_>
          4 0 7 1 2.</_>
        <_>
          11 1 7 1 2.</_></rects>
      <tilted>0</tilted></_>
    <_>
      <rects>
        <_>
          4 4 28 2 -1.</_>
        <_>
          18 4 14 2 2.</_></rects>
      <tilted>0</tilted></_>
    <_>
      <rects>
        <_>
          4 12 21 12 -1.</_>
        <_>
          4 16 21 4 3.</_></rects>
      <tilted>0</tilted></_>
    <_>
      <rects>
        <_>
          5 0 8 6 -1.</_>
        <_>
          5 0 4 3 2.</_>
        <_>
          9 3 4 3 2.</_></rects>
      <tilted>0</tilted></_>
    <_>
      <rects>
        <_>
          5 0 19 20 -1.</_>
        <_>
          5 10 19 10 2.</_></rects>
      <tilted>0</tilted></_>
    <_>
      <rects>
        <_>
          6 18 3 2 -1.</_>
        <_>
          7 18 1 2 3.</_></rects>
      <tilted>0</tilted></_>
    <_>
      <rects>
        <_>
          6 20 9 1 -1.</_>
        <_>
          9 20 3 1 3.</_></rects>
      <tilted>0</tilted></_>
    <_>
      <rects>
        <_>
          7 0 13 20 -1.</_>
        <_>
          7 10 13 10 2.</_></rects>
      <tilted>0</tilted></_>
    <_>
      <rects>
        <_>
          8 5 3 5 -1.</_>
        <_>
          9 5 1 5 3.</_></rects>
      <tilted>0</tilted></_>
    <_>
      <rects>
        <_>
          9 6 1 2 -1.</_>
        <_>
          9 7 1 1 2.</_></rects>
      <tilted>0</tilted></_>
    <_>
      <rects>
        <_>
          9 9 26 4 -1.</_>
        <_>
          9 11 26 2 2.</_></rects>
      <tilted>0</tilted></_>
    <_>
      <rects>
        <_>
          9 10 2 3 -1.</_>
        <_>
          10 10 1 3 2.</_></rects>
      <tilted>0</tilted></_>
    <_>
      <rects>
        <_>
          9 13 13 10 -1.</_>
        <_>
          9 18 13 5 2.</_></rects>
      <tilted>0</tilted></_>
    <_>
      <rects>
        <_>
          10 0 23 6 -1.</_>
        <_>
          10 2 23 2 3.</_></rects>
      <tilted>0</tilted></_>
    <_>
      <rects>
        <_>
          10 5 4 12 -1.</_>
        <_>
          12 5 2 12 2.</_></rects>
      <tilted>0</tilted></_>
    <_>
      <rects>
        <_>
          11 10 2 5 -1.</_>
        <_>
          12 10 1 5 2.</_></rects>
      <tilted>0</tilted></_>
    <_>
      <rects>
        <_>
          12 1 2 2 -1.</_>
        <_>
          12 2 2 1 2.</_></rects>
      <tilted>0</tilted></_>
    <_>
      <rects>
        <_>
          12 5 8 12 -1.</_>
        <_>
          16 5 4 12 2.</_></rects>
      <tilted>0</tilted></_>
    <_>
      <rects>
        <_>
          12 7 2 1 -1.</_>
        <_>
          13 7 1 1 2.</_></rects>
      <tilted>0</tilted></_>
    <_>
      <rects>
        <_>
          12 9 2 12 -1.</_>
        <_>
          12 9 1 6 2.</_>
        <_>
          13 15 1 6 2.</_></rects>
      <tilted>0</tilted></_>
    <_>
      <rects>
        <_>
          12 9 3 10 -1.</_>
        <_>
          13 9 1 10 3.</_></rects>
      <tilted>0</tilted></_>
    <_>
      <rects>
        <_>
          13 0 4 4 -1.</_>
        <_>
          13 0 2 2 2.</_>
        <_>
          15 2 2 2 2.</_></rects>
      <tilted>0</tilted></_>
    <_>
      <rects>
        <_>
          14 7 3 2 -1.</_>
        <_>
          15 7 1 2 3.</_></rects>
      <tilted>0</tilted></_>
    <_>
      <rects>
        <_>
          14 15 2 7 -1.</_>
        <_>
          15 15 1 7 2.</_></rects>
      <tilted>0</tilted></_>
    <_>
      <rects>
        <_>
          16 1 14 4 -1.</_>
        <_>
          16 1 7 2 2.</_>
        <_>
          23 3 7 2 2.</_></rects>
      <tilted>0</tilted></_>
    <_>
      <rects>
        <_>
          16 7 20 16 -1.</_>
        <_>
          16 7 10 8 2.</_>
        <_>
          26 15 10 8 2.</_></rects>
      <tilted>0</tilted></_>
    <_>
      <rects>
        <_>
          16 8 5 16 -1.</_>
        <_>
          16 16 5 8 2.</_></rects>
      <tilted>0</tilted></_>
    <_>
      <rects>
        <_>
          17 0 18 2 -1.</_>
        <_>
          17 0 9 1 2.</_>
        <_>
          26 1 9 1 2.</_></rects>
      <tilted>0</tilted></_>
    <_>
      <rects>
        <_>
          17 5 4 10 -1.</_>
        <_>
          19 5 2 10 2.</_></rects>
      <tilted>0</tilted></_>
    <_>
      <rects>
        <_>
          18 10 2 4 -1.</_>
        <_>
          18 10 1 2 2.</_>
        <_>
          19 12 1 2 2.</_></rects>
      <tilted>0</tilted></_>
    <_>
      <rects>
        <_>
          18 13 6 4 -1.</_>
        <_>
          21 13 3 4 2.</_></rects>
      <tilted>0</tilted></_>
    <_>
      <rects>
        <_>
          19 0 6 2 -1.</_>
        <_>
          19 0 3 1 2.</_>
        <_>
          22 1 3 1 2.</_></rects>
      <tilted>0</tilted></_>
    <_>
      <rects>
        <_>
          19 0 14 4 -1.</_>
        <_>
          19 0 7 2 2.</_>
        <_>
          26 2 7 2 2.</_></rects>
      <tilted>0</tilted></_>
    <_>
      <rects>
        <_>
          20 0 16 4 -1.</_>
        <_>
          20 0 8 2 2.</_>
        <_>
          28 2 8 2 2.</_></rects>
      <tilted>0</tilted></_>
    <_>
      <rects>
        <_>
          21 10 6 5 -1.</_>
        <_>
          23 10 2 5 3.</_></rects>
      <tilted>0</tilted></_>
    <_>
      <rects>
        <_>
          21 11 3 7 -1.</_>
        <_>
          22 11 1 7 3.</_></rects>
      <tilted>0</tilted></_>
    <_>
      <rects>
        <_>
          23 9 3 15 -1.</_>
        <_>
          24 9 1 15 3.</_></rects>
      <tilted>0</tilted></_>
    <_>
      <rects>
        <_>
          23 18 2 4 -1.</_>
        <_>
          23 18 1 2 2.</_>
        <_>
          24 20 1 2 2.</_></rects>
      <tilted>0</tilted></_>
    <_>
      <rects>
        <_>
          23 22 4 1 -1.</_>
        <_>
          25 22 2 1 2.</_></rects>
      <tilted>0</tilted></_>
    <_>
      <rects>
        <_>
          24 7 4 12 -1.</_>
        <_>
          24 7 2 6 2.</_>
        <_>
          26 13 2 6 2.</_></rects>
      <tilted>0</tilted></_>
    <_>
      <rects>
        <_>
          24 7 12 12 -1.</_>
        <_>
          30 7 6 12 2.</_></rects>
      <tilted>0</tilted></_>
    <_>
      <rects>
        <_>
          24 13 12 3 -1.</_>
        <_>
          30 13 6 3 2.</_></rects>
      <tilted>0</tilted></_>
    <_>
      <rects>
        <_>
          26 6 10 18 -1.</_>
        <_>
          26 6 5 9 2.</_>
        <_>
          31 15 5 9 2.</_></rects>
      <tilted>0</tilted></_>
    <_>
      <rects>
        <_>
          26 8 2 7 -1.</_>
        <_>
          27 8 1 7 2.</_></rects>
      <tilted>0</tilted></_>
    <_>
      <rects>
        <_>
          26 8 10 6 -1.</_>
        <_>
          26 11 10 3 2.</_></rects>
      <tilted>0</tilted></_>
    <_>
      <rects>
        <_>
          26 9 10 7 -1.</_>
        <_>
          31 9 5 7 2.</_></rects>
      <tilted>0</tilted></_>
    <_>
      <rects>
        <_>
          26 16 3 6 -1.</_>
        <_>
          27 16 1 6 3.</_></rects>
      <tilted>0</tilted></_>
    <_>
      <rects>
        <_>
          26 19 3 1 -1.</_>
        <_>
          27 19 1 1 3.</_></rects>
      <tilted>0</tilted></_>
    <_>
      <rects>
        <_>
          27 11 8 10 -1.</_>
        <_>
          27 16 8 5 2.</_></rects>
      <tilted>0</tilted></_>
    <_>
      <rects>
        <_>
          28 2 8 8 -1.</_>
        <_>
          28 2 4 4 2.</_>
        <_>
          32 6 4 4 2.</_></rects>
      <tilted>0</tilted></_>
    <_>
      <rects>
        <_>
          28 16 8 8 -1.</_>
        <_>
          32 16 4 8 2.</_></rects>
      <tilted>0</tilted></_>
    <_>
      <rects>
        <_>
          30 2 6 15 -1.</_>
        <_>
          33 2 3 15 2.</_></rects>
      <tilted>0</tilted></_>
    <_>
      <rects>
        <_>
          30 13 6 5 -1.</_>
        <_>
          32 13 2 5 3.</_></rects>
      <tilted>0</tilted></_>
    <_>
      <rects>
        <_>
          31 15 4 3 -1.</_>
        <_>
          31 16 4 1 3.</_></rects>
      <tilted>0</tilted></_>
    <_>
      <rects>
        <_>
          32 0 2 10 -1.</_>
        <_>
          33 0 1 10 2.</_></rects>
      <tilted>0</tilted></_>
    <_>
      <rects>
        <_>
          32 2 2 21 -1.</_>
        <_>
          33 2 1 21 2.</_></rects>
      <tilted>0</tilted></_>
    <_>
      <rects>
        <_>
          33 0 2 4 -1.</_>
        <_>
          33 2 2 2 2.</_></rects>
      <tilted>0</tilted></_>
    <_>
      <rects>
        <_>
          33 10 2 10 -1.</_>
        <_>
          34 10 1 10 2.</_></rects>
      <tilted>0</tilted></_>
    <_>
      <rects>
        <_>
          34 14 2 10 -1.</_>
        <_>
          35 14 1 10 2.</_></rects>
      <tilted>0</tilted></_></features></cascade>
</opencv_storage>
