<?xml version="1.0"?>
<opencv_storage>
<stage11>
  <maxWeakCount>9</maxWeakCount>
  <stageThreshold>-8.3870238065719604e-01</stageThreshold>
  <weakClassifiers>
    <_>
      <internalNodes>
        0 -1 338093 2.0210100337862968e-02</internalNodes>
      <leafValues>
        -4.4162437319755554e-01 4.5263159275054932e-01</leafValues></_>
    <_>
      <internalNodes>
        0 -1 354301 1.4435151591897011e-02</internalNodes>
      <leafValues>
        -3.8896337151527405e-01 4.6876540780067444e-01</leafValues></_>
    <_>
      <internalNodes>
        0 -1 326453 -1.5930132940411568e-03</internalNodes>
      <leafValues>
        -7.5113940238952637e-01 2.1413895487785339e-01</leafValues></_>
    <_>
      <internalNodes>
        0 -1 20168 1.3886429951526225e-04</internalNodes>
      <leafValues>
        2.2631464898586273e-01 -7.0584160089492798e-01</leafValues></_>
    <_>
      <internalNodes>
        0 -1 162 -5.1653172704391181e-05</internalNodes>
      <leafValues>
        -5.3107756376266479e-01 3.1240159273147583e-01</leafValues></_>
    <_>
      <internalNodes>
        0 -1 8871 -1.3841644395142794e-03</internalNodes>
      <leafValues>
        7.1687293052673340e-01 -2.5148761272430420e-01</leafValues></_>
    <_>
      <internalNodes>
        0 -1 165382 1.7372082220390439e-04</internalNodes>
      <leafValues>
        2.3871457576751709e-01 -7.3487991094589233e-01</leafValues></_>
    <_>
      <internalNodes>
        0 -1 257096 4.7390431165695190e-02</internalNodes>
      <leafValues>
        -2.2119522094726563e-01 6.2726110219955444e-01</leafValues></_>
    <_>
      <internalNodes>
        0 -1 27266 6.8487264798022807e-05</internalNodes>
      <leafValues>
        -3.7724897265434265e-01 4.0515470504760742e-01</leafValues></_></weakClassifiers></stage11>
</opencv_storage>
