<?xml version="1.0"?>
<opencv_storage>
<stage13>
  <maxWeakCount>8</maxWeakCount>
  <stageThreshold>-8.5558515787124634e-01</stageThreshold>
  <weakClassifiers>
    <_>
      <internalNodes>
        0 -1 27539 2.1565802395343781e-02</internalNodes>
      <leafValues>
        -4.6153846383094788e-01 3.6363637447357178e-01</leafValues></_>
    <_>
      <internalNodes>
        0 -1 262727 -3.7833503447473049e-03</internalNodes>
      <leafValues>
        4.8609337210655212e-01 -3.0649158358573914e-01</leafValues></_>
    <_>
      <internalNodes>
        0 -1 82442 -6.6020530648529530e-03</internalNodes>
      <leafValues>
        -5.5943399667739868e-01 2.7492451667785645e-01</leafValues></_>
    <_>
      <internalNodes>
        0 -1 356276 -5.8318134397268295e-03</internalNodes>
      <leafValues>
        6.7222911119461060e-01 -2.1230448782444000e-01</leafValues></_>
    <_>
      <internalNodes>
        0 -1 209860 1.1828516144305468e-03</internalNodes>
      <leafValues>
        2.0568567514419556e-01 -8.5520648956298828e-01</leafValues></_>
    <_>
      <internalNodes>
        0 -1 90071 6.5783008933067322e-02</internalNodes>
      <leafValues>
        -2.1457926928997040e-01 8.6340701580047607e-01</leafValues></_>
    <_>
      <internalNodes>
        0 -1 149192 -1.4122924767434597e-04</internalNodes>
      <leafValues>
        -5.8247333765029907e-01 2.7124610543251038e-01</leafValues></_>
    <_>
      <internalNodes>
        0 -1 215177 -2.9201188590377569e-04</internalNodes>
      <leafValues>
        4.5130333304405212e-01 -3.8398301601409912e-01</leafValues></_></weakClassifiers></stage13>
</opencv_storage>
