<?xml version="1.0"?>
<opencv_storage>
<stage0>
  <maxWeakCount>5</maxWeakCount>
  <stageThreshold>-9.4383782148361206e-01</stageThreshold>
  <weakClassifiers>
    <_>
      <internalNodes>
        0 -1 19672 6.0603385791182518e-03</internalNodes>
      <leafValues>
        6.5151512622833252e-01 -8.1250000000000000e-01</leafValues></_>
    <_>
      <internalNodes>
        0 -1 640 -5.7157948613166809e-03</internalNodes>
      <leafValues>
        6.8849271535873413e-01 -6.1905980110168457e-01</leafValues></_>
    <_>
      <internalNodes>
        0 -1 320369 -2.5890537071973085e-03</internalNodes>
      <leafValues>
        -1. 4.6014973521232605e-01</leafValues></_>
    <_>
      <internalNodes>
        0 -1 238 -2.0845582708716393e-02</internalNodes>
      <leafValues>
        9.5943975448608398e-01 -4.8989361524581909e-01</leafValues></_>
    <_>
      <internalNodes>
        0 -1 322603 -6.2719883862882853e-04</internalNodes>
      <leafValues>
        -9.6396923065185547e-01 5.1746588945388794e-01</leafValues></_></weakClassifiers></stage0>
</opencv_storage>
