<?xml version="1.0"?>
<opencv_storage>
<stage7>
  <maxWeakCount>6</maxWeakCount>
  <stageThreshold>-1.0015337467193604e+00</stageThreshold>
  <weakClassifiers>
    <_>
      <internalNodes>
        0 -1 292039 -8.9094974100589752e-03</internalNodes>
      <leafValues>
        6.9230771064758301e-01 -5.3233832120895386e-01</leafValues></_>
    <_>
      <internalNodes>
        0 -1 20568 -1.7662929603829980e-03</internalNodes>
      <leafValues>
        4.6148064732551575e-01 -5.8943456411361694e-01</leafValues></_>
    <_>
      <internalNodes>
        0 -1 1691 -1.6208792658289894e-05</internalNodes>
      <leafValues>
        4.2773869633674622e-01 -6.0935723781585693e-01</leafValues></_>
    <_>
      <internalNodes>
        0 -1 338513 -9.2481268438859843e-06</internalNodes>
      <leafValues>
        5.3705197572708130e-01 -4.8296624422073364e-01</leafValues></_>
    <_>
      <internalNodes>
        0 -1 326660 4.0388673543930054e-02</internalNodes>
      <leafValues>
        -3.1054756045341492e-01 7.5440156459808350e-01</leafValues></_>
    <_>
      <internalNodes>
        0 -1 1035 9.7825024276971817e-03</internalNodes>
      <leafValues>
        -4.9086144566535950e-01 5.0309187173843384e-01</leafValues></_></weakClassifiers></stage7>
</opencv_storage>
